tree
version=v4
num_class=11
num_tree_per_iteration=11
label_index=0
max_feature_idx=17
objective=multiclass num_class:11
feature_names=Column_0 Column_1 Column_2 Column_3 Column_4 Column_5 Column_6 Column_7 Column_8 Column_9 Column_10 Column_11 Column_12 Column_13 Column_14 Column_15 Column_16 Column_17
feature_infos=[-1.6630798843976626:8.2728083517781297] [-2.1433262091608194:3.7182305633989894] [-1.7557351603180538:4.2751486560256531] [-11.713917391588065:2.6021569461064105] [-2.9143673036128592:3.9407968516662448] [-2.63872685250334:3.9903135374694338] [-1.459727230094773:1.0707953680912676] [-1.8190240362894401:2.9460122891125669] [-2.2234730957988775:2.0767307077954187] [-2.2956510973854969:2.0649800304768364] [-1.871027294238367:4.6689516625303451] [-2.998387365198163:3.811211883640234] [-1.840873507622427:7.1045760495190278] [-2.225312684689404:2.8836204827447025] [-0.99220196867693866:4.7773516911690983] [-2.2112256958190044:2.2592256306158145] [-2.5094427584912755:6.239027960579687] [-0.42108449864011438:2.7344461733509684]
tree_sizes=2277 2699 3342 992 1078 1377 882 2703 2107 3343 1172 3443 3440 3369 3627 3547 3531 3597 3432 3472 3380 3554 3443 3412 3369 3627 3537 3503 3600 3435 3478 3371 3527 3446 3423 3375 3623 3569 3501 3602 3438 3485 3392 3528 3443 3412 3383 3635 3563 3488 3594 3446 3475 3382 3544 3445 3434 3380 3633 3560 3521 3619 3417 3485 3383 3548 3437 3435 3381 3643 3582 3513 3599 3416 3506 3398 3542 3452 3430 3379 3651 3577 3497 3601 3419 3514 3410 3558 3454 3433 3388 3655 3584 3492 3626 3411 3508 3399 3551 3458 3414 3403 3653 3577 3517 3627 3423 3503 3395 3546 3459 3415 3394 3653 3570 3507 3633 3409 3492 3387 3550 3438 3427 3385 3670 3577 3509 3624 3427 3527 3387 3586 3442 3412 3396 3679 3581 3509 3628 3406 3504 3378 3586 3432 3413 3396 3677 3579 3519 3639 3403 3488 3406 3582 3406 3405 3372 3658 3590 3515 3633 3416 3490 3404 3563 3455 3420 3397 3672 3599 3509 3641 3401 3495 3400 3571 3436 3411 3408 3651 3605 3529 3643 3420 3521 3416 3588 3453 3402 3415 3675 3598 3498 3647 3415 3515 3414 3595 3443 3403 3412 3657 3597 3530 3641 3427 3534 3424 3595 3463 3409 3409 3681 3606 3544 3634 3425 3490 3402 3611 3435 3435 3410 3680 3611 3543 3640 3422 3491 3437 3580 3448 3431 3408 3672 3600 3534 3646 3442 3485 3410 3602 3500 3429 3408 3686 3614 3545 3674 3427 3488 3427 3611 3465 3431 3431 3681 3604 3525 3677 3409 3517 3421 3611 3486 3429 3433 3682 3598 3552 3669 3424 3490 3418 3602 3483 3419 3429 3695 3604 3560 3659 3461 3522 3438 3612 3477 3437 3420 3698 3621 3543 3671 3441 3506 3422 3603 3457 3460 3429 3690 3635 3575 3686 3456 3542 3432 3602 3481 3457 3467 3685 3628 3535 3667 3422 3509 3437 3617 3466 3428 3450 3702 3625 3551 3659 3433 3520 3431 3606 3487 3468 3464 3701 3634 3552 3663 3438 3527 3445 3632 3496 3449 3455 3708 3633 3574 3683 3455 3534 3449 3615 3496 3464 3456 3693 3654 3570 3682 3457 3536 3444 3627 3488 3450 3465 1738 3656 3579 3692 3466 3538 3443 3630 3494 3441 3438 1633 3661 3585 3573 3457 3536 3455 3650 3490 3460 3450 2669 3651 3542 3693 3477 3551 3459 3633 3488 3466 3461 1397 3660 3560 3579 3467 3556 3448 3640 3505 3461 3454 2446 3661 3566 3673 3473 3560 3464 3654 3510 3463 3444 1286 2871 3569 3111 3468 3534 3459 3652 3532 3457 3455 2205 3660 3570 3683 3484 3569 3438 3636 3513 3455 3461 1171 3651 3577 3104 3475 3543 3455 3635 3495 3451 3469 2323 3676 3576 3570 3484 3567 3457 3647 3509 3477 3465 1052 2642 3571 1968 3488 3541 3459 3641 3506 3469 3474 1984 3686 3588 2548 3486 3564 3452 3657 3514 3466 3465 941 3697 3575 2539 3477 3583 3451 3656 3519 3485 3478 1742 3684 3584 2078 3504 3575 3457 3656 3523 3480 3484 938 2420 3585 1846 3508 3547 3476 3671 3509 3507 3480 2091 3439 3591 3005 3498 3012 3476 3665 3554 3489 3487 1973 3580 3587 1611 3476 3593 3469 3676 3547 3487 3488 825 3574 3595 2323 3514 3599 3480 3657 3523 3504 3492 1626 3240 3604 2194 3479 3142 3492 3675 3569 3489 3503 830 3234 3602 2560 3481 3610 3475 3666 3531 3525 3506 1627 478 3591 2199 3500 3600 3487 3677 3553 3516 3504 226 477 3599 2436 3506 3601 3492 3554 3551 3512 3494 226 929 3630 1856 3511 3384 3487 3555 3564 3526 3496 226 934 3620 2083 3528 3612 3497 3679 3533 3512 3520 226 478 3619 1740 3493 3380 3496 3336 3575 3535 3515 226 479 3625 1968 3532 3617 3498 3109 3433 3513 3527 490 479 3637 1518 3524 2947 3509 3680 3543 3542 3517 226 479 3614 1622 3502 3589 3494 3456 3543 3543 3513 226 480 3641 368 3530 3500 3492 2641 2799 3533 3512 226 3110 3639 369 3420 3485 3500 3679 3579 3548 3531 226 2765 3632 370 3312 1351 3498 2295 3592 3510 3517 226 2988 3617 369 3503 3494 3495 2191 3563 3552 3514 226 2538 3619 929 3537 3164 3492 3111 3576 3539 3515 226 2319 2965 1627 3523 3055 3515 2530 3575 3515 3542 226 1964 3524 370 3537 3401 3502 2865 3023 3541 3532 226 475 3530 369 3533 3397 3521 2990 3470 3546 3526 226 480 3661 370 3546 3510 3498 2757 3233 3543 3532 226 480 3542 370 3548 3044 3494 2762 3225 2878 3530 226 482 3433 369 3536 2813 3497 2190 3586 3556 3518 226 482 3540 371 3527 3038 3505 2629 3257 3434 3552 226 485 3637 369 3547 2932 3508 2083 3472 3542 3535 226 481 3305 370 3566 3183 3510 1853 3576 3433 3536 226 480 2650 371 3565 2829 3524 481 2912 3544 3560 226 483 807 371 3549 2595 3520 478 3601 3546 3528 226 482 2508 371 3532 1803 3514 479 3600 3544 3525 226 483 3092 371 3547 2143 3524 1616 3613 3571 3524 226 478 3086 370 3341 3608 3523 481 3506 2900 3534 226 483 3080 371 3338 3610 3528 1738 3603 3476 2889 226 483 3310 371 3553 1474 3531 482 3593 3558 3550 226 478 3447 369 3210 1474 3520 478 2366 3551 3536 226 478 3541 370 3559 2380 3536 483 3023 3561 3548 226 479 2287 372 3584 2617 3533 482 1805 3555 3554 226 483 3093 371 3548 1573 3529 482 2839 3556 3225 226 481 3093 370 3246 1470 3564 1848 3381 3552 3527 226 478 3663 370 2798 3632 3537 480 2810 3577 3575 226 483 3210 370 3569 2605 3536 481 2346 3554 3541 226 483 1946 370 2463 2498 3564 479 2139 3115 3554 226 478 2406 371 2686 3295 3563 479 2832 3575 3536 226 483 2730 370 3466 2626 3547 482 3161 2577 3561 227 482 3324 372 2460 2391 3563 484 3150 3598 3550 227 481 703 372 3591 1693 3542 481 3618 3570 3573 227 483 2410 372 3582 1581 3555 484 2686 2678 3573 227 485 2519 372 2910 2259 3539 483 3168 3564 3555 227 482 1956 372 3590 2965 3544 483 2038 3592 3334 227 483 2418 372 2916 1472 3553 932 3631 3578 3578 227 487 2182 372 3136 1697 3567 484 3624 3572 3567 227 484 3428 371 3261 2379 3549 482 3396 3262 3256 227 483 1482 372 3600 2160 3569 484

Tree=0
num_leaves=21
num_cat=0
split_feature=13 10 10 14 5 2 4 4 2 7 1 13 13 2 12 6 6 12 7 6
split_gain=42.3699 42.4888 23.569 30.6041 15.8772 17.3928 16.122 10.4788 6.2721 8.88732 4.90862 4.73536 2.97584 2.11327 3.74891 0.68382 1.79205 0.605884 0.39671 8.88178e-16
threshold=1.4923485041130933 -0.060371963232153332 -0.27656961469558178 -0.15080872661605835 0.3875741950929264 -1.0000000180025095e-35 0.99307626489623035 0.17045656626273775 -1.6584628406996067 -0.55769089133008509 -1.0000000180025095e-35 0.44889452013938619 0.38617324241419065 2.0378853048013754 0.25236168874867365 0.83712878070746777 0.86655346208172412 0.789088662177161 0.28319787197615137 -1.4268408215000157
decision_type=2 2 2 2 2 2 2 2 2 2 2 2 2 2 2 2 2 2 2 2
left_child=2 7 3 11 5 12 -7 -2 9 -4 -3 17 18 15 -15 -10 -17 19 -5 -1
right_child=1 10 8 4 -6 6 -8 -9 13 -11 -12 -13 -14 14 -16 16 -18 -19 -20 -21
leaf_value=-2.7810848491169664 -2.3730407509102007 -2.7810848491169664 -2.7810848491169664 -2.7810848491169664 -2.2574282564182835 -2.2282509096110257 -2.6512526360511774 -2.0075012462666395 -2.7810848491169664 -2.441048100611328 -2.5525801541211774 -2.5770628000135836 -2.5770628000135836 -2.7810848491169664 -2.5668616975584144 -2.6512526360511774 -2.7810848491169664 -2.7096771319307824 -2.7096771319307824 -2.7810848491169664
leaf_weight=2.8708382323384276 1.4704293385148051 2.0305928960442547 1.6104702278971674 1.7505111172795289 2.1006133407354346 2.1706337854266162 1.5404497832059858 1.6804906725883482 28.148218765854836 1.4704293385148037 1.7505111172795285 1.4704293385148037 1.4704293385148046 1.9605724513530725 1.4004088938236234 1.5404497832059849 3.431001789867878 1.4004088938236234 1.4004088938236234 4.9714515730738666
leaf_count=41 21 29 23 25 30 31 22 24 402 21 25 21 21 28 20 22 49 20 20 71
internal_value=-2.68351 -2.44929 -2.71025 -2.62503 -2.50312 -2.56506 -2.40384 -2.17809 -2.75581 -2.61879 -2.6753 -2.74375 -2.69453 -2.76738 -2.69183 -2.77505 -2.74086 -2.77027 -2.74935 -2.78108
internal_weight=67.6397 6.93202 60.7077 21.1462 10.433 8.33243 3.71108 3.15092 39.5616 3.0809 3.7811 10.7131 4.62135 36.4807 3.36098 33.1197 4.97145 9.2427 3.15092 7.84229
internal_count=966 99 867 302 149 119 53 45 565 44 54 153 66 521 48 473 71 132 45 112
is_linear=0
shrinkage=1


Tree=1
num_leaves=25
num_cat=0
split_feature=17 15 8 11 4 2 13 0 11 5 5 15 8 16 5 5 7 16 4 14 1 2 0 5
split_gain=23.4212 25.746 11.417 10.492 13.7316 8.84713 7.93264 6.39599 4.25661 3.81249 5.87904 5.80396 6.65464 3.38724 3.03878 3.24557 1.84827 1.8421 3.46579 1.96356 0.447332 3.55271e-15 4.44089e-16 4.44089e-16
threshold=-0.40054067916100572 -1.5354597976369966 -0.80287005354004737 -0.70535904671176397 1.1301795480018126 1.4542513870906939 1.0000000180025095e-35 0.33109486722916898 1.5181835651538351 0.67579334248304701 -0.47708324707743538 0.3358919204054856 -1.6859476203495902 1.2683059611075493 1.0000000180025095e-35 0.3875741950929264 -0.27739463689467297 -1.1176405986390769 0.30755984936831987 2.2531719649864574 -1.0000000180025095e-35 -0.68573964451513791 -1.0000000180025095e-35 0.96401248987316768
decision_type=2 2 2 2 2 2 2 2 2 2 2 2 2 2 2 2 2 2 2 2 2 2 2 2
left_child=1 -1 -3 6 5 9 7 -2 13 10 16 12 -12 17 -13 -16 22 18 -4 21 -11 -19 -5 -22
right_child=3 2 8 4 -6 -7 -8 -9 -10 20 11 14 -14 -15 15 -17 -18 19 -20 -21 23 -23 -24 -25
leaf_value=-2.2255797050341077 -2.3557126548329865 -2.4291748039129977 -2.6810450293301811 -2.6810450293301811 -2.2669856436064779 -2.3774014797994658 -2.2078343027888065 -2.619076957997382 -2.495140815331784 -2.6159785544307419 -2.5627423476948374 -2.6810450293301811 -2.2954659188149868 -2.5364528628869834 -2.4400580852581846 -2.6244654859393646 -2.5509120795313032 -2.6810450293301811 -2.485845604631864 -2.5769386694910787 -2.6810450293301811 -2.6810450293301811 -2.6810450293301811 -2.6810450293301811
leaf_weight=1.5368898212909687 2.1516457498073609 2.3821792230010024 2.2284902408719058 2.2284902408719063 1.6905788034200657 2.3053347319364539 1.6905788034200666 1.6137343123555181 1.6137343123555172 1.5368898212909696 1.6905788034200671 1.8442677855491636 2.0748012587428075 2.0748012587428084 2.0748012587428093 1.7674232944846155 1.5368898212909794 7.3770711421966508 1.5368898212909696 1.9211122766137112 1.6137343123555177 24.436548158526428 1.5368898212909701 1.7674232944846151
leaf_count=20 28 31 29 29 22 30 22 21 21 20 22 24 27 27 27 23 20 96 20 25 21 318 20 23
internal_value=-2.5827 -2.62784 -2.64203 -2.5128 -2.54162 -2.56274 -2.38779 -2.46858 -2.65434 -2.58446 -2.55905 -2.51177 -2.41547 -2.66083 -2.57553 -2.52489 -2.64333 -2.66771 -2.60137 -2.67512 -2.66071 -2.68105 -2.68105 -2.68105
internal_weight=74.2318 45.1077 43.5708 29.1241 23.6681 21.9775 5.45596 3.76538 41.1886 19.6722 14.7541 9.45187 3.76538 39.5749 5.68649 3.84222 5.30227 37.5001 3.76538 33.7347 4.91805 31.8136 3.76538 3.38116
internal_count=966 587 567 379 308 286 71 49 536 256 192 123 49 515 74 50 69 488 49 439 64 414 49 44
is_linear=0
shrinkage=1


Tree=2
num_leaves=31
num_cat=0
split_feature=8 10 14 3 12 10 8 6 15 12 13 3 15 11 2 13 9 11 13 5 3 3 12 1 1 15 0 0 6 4
split_gain=272.818 87.5617 30.4179 23.292 16.9663 15.6908 14.273 13.7729 12.9515 10.4294 5.24694 4.19086 3.56853 3.25244 3.07811 3.16328 3.25714 1.87063 1.34571 1.14879 1.18736 0.8045 0.750212 0.569496 0.412521 0.805901 1.42109e-14 1.42109e-14 7.10543e-15 3.55271e-15
threshold=1.0000000180025095e-35 0.85846805548741789 -0.39120679577630985 -0.3314648444047526 0.71752506572002939 -0.060371963232153332 0.7713116959900076 0.66058069246193007 -0.39185596994436861 0.789088662177161 0.64276028765362681 0.45083429973155759 0.3358919204054856 0.12846943273783562 1.6487960263275876 0.18090360622264173 1.0000000180025095e-35 0.54538367246263542 1.4353291607265519 -0.18886409968731482 -0.87907424530016953 -0.3314648444047526 -1.0715648457082614 -0.53612515862022658 -0.15796020555185186 -1.3275318289656097 -0.1587024401879476 1.0000000180025095e-35 -1.4095321853975122 -1.3376795478986649
decision_type=2 2 2 2 2 2 2 2 2 2 2 2 2 2 2 2 2 2 2 2 2 2 2 2 2 2 2 2 2 2
left_child=8 2 3 -2 10 6 -4 -3 19 11 -5 13 29 21 15 23 17 -17 -18 26 -21 22 -10 -7 25 -22 28 -25 -1 -9
right_child=1 7 5 4 -6 14 -8 12 9 -11 -12 -13 -14 -15 -16 16 18 -19 -20 20 24 -23 -24 27 -26 -27 -28 -29 -30 -31
leaf_value=-1.1119340399241897 -0.77463072130377264 -0.9250300365327897 -0.80551930359501955 -1.1119340399241895 -0.86662253547297718 -0.75687791506059277 -0.99332188392580123 -1.1119340399241895 -1.0976566507762355 -0.91918928642680842 -0.97701271247602284 -0.97785073314340276 -1.0194165582454466 -1.0081484034255999 -0.82557040615665189 -0.78812285404858928 -0.72644453292942723 -0.8666225354729773 -0.78812285404858928 -1.0476857887583959 -1.1119340399241895 -1.1119340399241895 -1.0535265388643771 -0.72644453292942734 -1.1119340399241897 -1.0568641103535092 -1.1119340399241897 -0.72644453292942723 -1.1119340399241897 -1.1119340399241897
leaf_weight=15.045805573463442 8.3011341094970721 8.5605445504188555 10.117007195949556 6.485261023044588 8.560544550418852 9.8575967550277728 6.7446714639663687 6.2258505821228054 7.004081904888154 6.7446714639663687 5.1882088184356689 5.9664401412010184 6.4852610230445853 6.7446714639663687 9.0793654322624189 6.4852610230445862 7.7823132276535034 5.7070297002792358 6.4852610230445862 6.2258505821228054 5.1882088184356716 8.3011341094970721 8.5605445504188538 7.5229027867317226 10.117007195949549 5.4476192593574551 17.380499541759491 8.8199549913406354 14.008163809776304 5.4476192593574515
leaf_count=58 32 33 39 25 33 38 26 24 27 26 20 23 25 26 35 25 30 22 25 24 20 32 33 29 39 21 67 34 54 21
internal_value=-0.965081 -0.867641 -0.827251 -0.915685 -0.973553 -0.795146 -0.88064 -1.0296 -1.07681 -1.03345 -1.05197 -1.05452 -1.07889 -1.06946 -0.771796 -0.762525 -0.786913 -0.824867 -0.75448 -1.1024 -1.08599 -1.08679 -1.07339 -0.737895 -1.09748 -1.08373 -1.11193 -0.726445 -1.11193 -1.11193
internal_weight=250.59 133.856 107.137 28.5351 20.234 78.6014 16.8617 26.7193 116.735 43.3215 11.6735 36.5769 18.1587 30.6104 61.7397 52.6603 26.4599 12.1923 14.2676 73.4132 26.9787 23.8658 15.5646 26.2005 20.7528 10.6358 46.4345 16.3429 29.054 11.6735
internal_count=966 516 413 110 78 303 65 103 450 167 45 141 70 118 238 203 102 47 55 283 104 92 60 101 80 41 179 63 112 45
is_linear=0
shrinkage=1


Tree=3
num_leaves=8
num_cat=0
split_feature=0 0 6 10 0 0 10
split_gain=39.0487 1.11022e-16 1.11022e-16 1.11022e-16 5.55112e-17 1.38778e-17 1.38778e-17
threshold=2.1153564871058079 0.19115277939570705 0.81462755377421303 -1.3035084591468671 0.96083426247974735 1.3456750040217675 -1.4116072848785812
decision_type=2 2 2 2 2 2 2
left_child=1 2 3 6 -3 -6 -1
right_child=-2 4 -4 -5 5 -7 -8
leaf_value=-6.9641671353862611 -2.9682950525360337 -6.964167135386262 -6.9641671353862593 -6.9641671353862629 -6.964167135386262 -6.9641671353862593 -6.9641671353862602
leaf_weight=0.079627627274021506 0.025025825714692584 0.22295735636726022 0.025025825714692473 0.60630750481504936 0.085315314936451614 0.025025825714692473 0.029575975844636448
leaf_count=70 22 196 22 533 75 22 26
internal_value=-6.87316 -6.96417 -6.96417 -6.96417 -6.96417 -6.96417 -6.96417
internal_weight=1.09886 1.07384 0.740537 0.715511 0.333298 0.110341 0.109204
internal_count=966 944 651 629 293 97 96
is_linear=0
shrinkage=1


Tree=4
num_leaves=9
num_cat=0
split_feature=0 13 1 15 0 0 17 0
split_gain=56.1658 5.60912 17.0868 39.0192 8.88178e-16 4.44089e-16 4.44089e-16 1.11022e-16
threshold=2.1153564871058079 -0.86825231208971931 -0.725207635154414 0.3358919204054856 1.1007763503132093 -1.2082680989389114 -0.38410562357771877 0.89086321856301642
decision_type=2 2 2 2 2 2 2 2
left_child=1 2 3 -1 5 -3 -7 -4
right_child=-2 4 7 -5 -6 6 -8 -9
leaf_value=-5.1728816365816934 -3.1645397192425007 -5.1728816365816943 -5.1728816365816943 -3.0689043898453985 -5.1728816365816934 -5.1728816365816943 -5.1728816365816934 -5.1728816365816934
leaf_weight=0.23085529822856188 0.14937695767730463 0.22406543651595612 0.76046451181173302 0.14258709596469998 0.4345511496067046 3.5646773991174987 0.90305160777643489 0.14937695767730474
leaf_count=34 22 33 112 21 64 525 133 22
internal_value=-5.0814 -5.12608 -4.93911 -4.36954 -5.17288 -5.17288 -5.17288 -5.17288
internal_weight=6.55901 6.40963 1.28328 0.373442 5.12635 4.69179 4.46773 0.909841
internal_count=966 944 189 55 755 691 658 134
is_linear=0
shrinkage=1


Tree=5
num_leaves=12
num_cat=0
split_feature=8 3 6 10 8 4 12 12 0 11 0
split_gain=39.2903 10.8301 22.2857 10.1745 13.3017 8.20528 2.42211 2.55761 1.77636e-15 1.77636e-15 2.22045e-16
threshold=-1.954710358074234 -1.1137639885410624 0.72635350965144418 -1.3575578720127242 -0.49571263899759771 0.71886969868506612 1.8804335081484187 -1.3757101306510708 -0.64849974760506401 1.5181835651538351 -0.99835496718871874
decision_type=2 2 2 2 2 2 2 2 2 2 2
left_child=-1 2 5 4 -3 -2 7 -5 10 -10 -9
right_child=1 3 -4 6 -6 -7 -8 8 9 -11 -12
leaf_value=-3.1935036238919241 -4.1324880902572225 -3.4951168161183506 -3.2179988708405802 -3.8695724396749385 -4.1324880902572216 -3.6066567890926535 -3.8695724396749385 -4.1324880902572225 -4.1324880902572225 -4.1324880902572225 -4.1324880902572225
leaf_weight=0.53249017894268291 1.3502429537475156 0.62757771089673042 0.43740264698863018 0.38035012781620103 0.68463023006916468 0.38035012781620015 0.38035012781620103 0.45642015337944064 10.554716046899543 0.72266524285078126 1.8637156262993801
leaf_count=28 71 33 23 20 36 20 20 24 555 38 98
internal_value=-4.03995 -4.06522 -3.85573 -4.0942 -3.82766 -4.01692 -4.11856 -4.12533 -4.13249 -4.13249 -4.13249
internal_weight=18.3709 17.8384 2.168 15.6704 1.31221 1.73059 14.3582 13.9779 13.5975 11.2774 2.32014
internal_count=966 938 114 824 69 91 755 735 715 593 122
is_linear=0
shrinkage=1


Tree=6
num_leaves=7
num_cat=0
split_feature=12 11 17 13 13 0
split_gain=18.6442 11.4258 4.44089e-16 2.22045e-16 2.22045e-16 5.55112e-17
threshold=-1.3757101306510708 -2.095073179127763 -0.35945304020278845 -1.2958973874887796 -0.41209756499738842 0.33109486722916898
decision_type=2 2 2 2 2 2
left_child=-1 -2 3 -3 -5 -4
right_child=1 2 5 4 -6 -7
leaf_value=-4.271105637747306 -5.0819199840752685 -6.2711143586896414 -6.2711143586896432 -6.2711143586896432 -6.2711143586896441 -6.2711143586896432
leaf_weight=0.04999978328123722 0.084090544609353279 0.068181522656232896 0.16363565437495653 0.49999783281236965 1.1022679496090848 0.2272717421874404
leaf_count=22 37 30 72 220 485 100
internal_value=-6.18002 -6.2245 -6.27111 -6.27111 -6.27111 -6.27111
internal_weight=2.19545 2.14545 2.06135 1.67045 1.60227 0.390907
internal_count=966 944 907 735 705 172
is_linear=0
shrinkage=1


Tree=7
num_leaves=25
num_cat=0
split_feature=15 11 12 3 0 11 13 4 13 14 10 14 7 2 16 10 11 12 5 8 6 2 6 5
split_gain=31.8743 23.5988 11.2316 8.94627 6.44197 7.6647 6.31972 6.99333 5.01733 4.97135 5.78965 6.51767 4.86533 3.50373 3.23113 2.6357 4.56686 1.81407 0.44265 0.376252 0.313544 3.55271e-15 1.77636e-15 4.44089e-16
threshold=-1.4314958133013029 0.54538367246263542 -1.2504738368510908 1.6242830159360229 1.0308053063964784 -0.70535904671176397 -1.1020316199745388 -0.37795656615959056 -0.41209756499738842 3.4551623107877152 -0.6819402111895102 -0.39120679577630985 0.5634941264115636 -0.10210572680445659 0.47299044119200706 0.85846805548741789 -0.14947339374536425 -0.033892697079852964 0.96401248987316768 -1.6859476203495902 -1.3818383676335062 1.0000000180025095e-35 -1.3818383676335062 -1.0000000180025095e-35
decision_type=2 2 2 2 2 2 2 2 2 2 2 2 2 2 2 2 2 2 2 2 2 2 2 2
left_child=1 12 -2 4 6 -6 7 -4 19 10 11 -8 -1 -9 17 21 -17 20 23 -7 -13 -12 -19 -18
right_child=2 -3 3 -5 5 8 9 13 -10 -11 15 14 -14 -15 -16 16 18 22 -20 -21 -22 -23 -24 -25
leaf_value=-2.5546078183667147 -2.3699297522327702 -2.0390988671786459 -2.3401007380065786 -2.3723509384524286 -2.3383708421972225 -2.5783938857453585 -2.4059448972501887 -2.4738793472634377 -2.4130708885103198 -2.4481526916371186 -2.6411026088345113 -2.5156851626562058 -2.3275589933887479 -2.6411026088345113 -2.4529764395670535 -2.4481526916371186 -2.6411026088345113 -2.6411026088345113 -2.5783938857453585 -2.6411026088345113 -2.5783938857453585 -2.6411026088345113 -2.6411026088345113 -2.6411026088345113
leaf_weight=2.3122779354453082 2.9501477107405654 1.9933430477976797 1.9933430477976797 2.2325442135334006 2.3122779354453087 1.5946744382381441 2.5514791011810294 2.3920116573572159 1.7541418820619563 2.0730767697095862 9.1693780198693364 1.5946744382381441 1.5946744382381437 2.6312128230929366 1.5946744382381428 2.0730767697095871 2.2325442135334015 4.0664198175072643 1.5946744382381437 2.3920116573572159 1.5946744382381419 19.05635953694582 1.6744081601500465 1.5946744382381433
leaf_count=29 37 25 25 28 29 20 32 30 22 26 115 20 20 33 20 26 28 51 20 30 20 239 21 20
internal_value=-2.54243 -2.31908 -2.56096 -2.56923 -2.57589 -2.49209 -2.58755 -2.49858 -2.55401 -2.59982 -2.60626 -2.54933 -2.46193 -2.56147 -2.58409 -2.62711 -2.57439 -2.60751 -2.62266 -2.61602 -2.54704 -2.6411 -2.6411 -2.6411
internal_weight=77.0228 5.9003 71.1225 68.1723 65.9398 8.05311 57.8867 7.01657 5.74083 50.8701 48.797 13.0763 3.90695 5.02322 10.5249 35.7207 7.49497 8.93018 5.42189 3.98669 3.18935 28.2257 5.74083 3.82722
internal_count=966 74 892 855 827 101 726 88 72 638 612 164 49 63 132 448 94 112 68 50 40 354 72 48
is_linear=0
shrinkage=1


Tree=8
num_leaves=19
num_cat=0
split_feature=8 10 12 16 6 10 11 13 6 13 5 17 6 6 0 0 0 0
split_gain=25.045 84.8702 8.42782 11.3112 6.76244 13.5591 4.66123 9.76434 6.27165 4.03244 4.96664 1.13819 0.439886 0.967322 1.77636e-15 4.44089e-16 4.44089e-16 2.22045e-16
threshold=0.7713116959900076 1.0000000180025095e-35 0.35970708343437113 -0.322325078723535 0.6813510557849346 0.64227040402398938 0.68435508570423542 -0.18972212578987716 -1.0000000180025095e-35 -1.2160703067476215 -0.18886409968731482 -0.37588809578607535 0.83712878070746777 0.87347691652272563 -0.29864452802140945 0.19115277939570705 -1.0000000180025095e-35 -0.29864452802140945
decision_type=2 2 2 2 2 2 2 2 2 2 2 2 2 2 2 2 2 2
left_child=6 -2 3 -3 5 -5 9 11 -9 10 -1 16 14 -14 -11 -4 17 -8
right_child=1 2 15 4 -6 -7 7 8 -10 12 -12 -13 13 -15 -16 -17 -18 -19
leaf_value=-3.5330998200674348 -2.4229464554806421 -3.5330998200674348 -3.5330998200674348 -2.9002851257575197 -3.4285723928823151 -3.4160291016201008 -3.5330998200674348 -3.3937299171539417 -2.9756202084134613 -3.5330998200674348 -3.2079033799359511 -3.3867614220082669 -3.3867614220082669 -3.5330998200674348 -3.5330998200674348 -3.5330998200674348 -3.5330998200674348 -3.5330998200674348
leaf_weight=0.95668672025203705 0.99085410311817934 1.6400343775749204 2.3233820348978047 1.2641931660473353 0.95668672025203694 0.8541845716536044 0.92251933738589309 0.71751504018902779 0.71751504018902668 7.2093177847564265 0.92251933738589531 0.68334765732288394 0.68334765732288305 1.3325279317796228 8.5760130994021893 0.78584980592131604 0.68334765732288349 0.78584980592131615
leaf_count=28 29 48 68 37 28 25 27 21 21 211 27 20 20 39 251 23 20 23
internal_value=-3.43918 -3.29487 -3.40529 -3.32102 -3.2079 -3.10825 -3.49176 -3.40006 -3.18468 -3.51278 -3.37346 -3.50058 -3.52748 -3.48349 -3.5331 -3.5331 -3.5331 -3.5331
internal_weight=33.0057 8.81518 7.82433 4.7151 3.07506 2.11838 24.1905 4.51009 1.43503 19.6804 1.87921 3.07506 17.8012 2.01588 15.7853 3.10923 2.39172 1.70837
internal_count=966 258 229 138 90 62 708 132 42 576 55 90 521 59 462 91 70 50
is_linear=0
shrinkage=1


Tree=9
num_leaves=31
num_cat=0
split_feature=8 10 9 14 14 13 13 11 12 2 15 5 3 16 2 15 13 12 16 10 10 4 4 2 5 6 13 10 0 11
split_gain=126.067 75.841 16.0027 15.8906 11.7283 10.0681 13.6457 9.38387 9.01831 8.63461 7.06779 6.85792 6.54348 6.09795 5.46312 4.4703 4.24878 3.99714 4.95528 2.83753 6.16868 6.30664 2.34879 0.951542 2.26404 0.92334 0.652305 0.451023 1.42109e-14 3.55271e-15
threshold=1.0000000180025095e-35 0.85846805548741789 1.0000000180025095e-35 -0.63160486493656121 -0.15080872661605835 0.8081163834745968 0.13528813151340863 -0.42741622022856413 0.789088662177161 -0.29665036604135031 0.23192793606979212 0.96401248987316768 0.84198387179971268 1.0000000180025095e-35 -1.6584628406996067 -1.3275318289656097 -1.0000000180025095e-35 -1.1789102403939589 -0.71998283868130597 0.53417157829227524 -0.76301433048829581 0.58176641557948405 -1.6118861141098291 -0.68573964451513791 -1.0000000180025095e-35 -1.0000000180025095e-35 2.0625419379785073 0.64227040402398938 0.50602247702099634 -0.14947339374536425
decision_type=2 2 2 2 2 2 2 2 2 2 2 2 2 2 2 2 2 2 2 2 2 2 2 2 2 2 2 2 2 2
left_child=4 3 -3 10 8 6 7 -6 11 -4 -2 12 14 25 -1 -8 -11 -16 -19 20 21 -20 -5 24 -24 -9 27 28 -25 -30
right_child=1 2 9 22 5 -7 15 13 -10 16 -12 -13 -14 -15 17 -17 -18 18 19 -21 -22 -23 23 26 -26 -27 -28 -29 29 -31
leaf_value=-1.0844516219632661 -1.0273901941630019 -1.1587096444430616 -1.0554544315212406 -1.1587096444430616 -0.9672021127846413 -1.1566051660731889 -1.0355976598055057 -1.0355976598055057 -1.0959466718827391 -0.97246330870932329 -1.1848243078510279 -1.0915576528225766 -0.8851274563596041 -1.1821595462787866 -1.0542509908111959 -0.91489963565103916 -0.84995260360601632 -0.88701423007052427 -0.94440359711101984 -1.0445188181125751 -0.86949418846912152 -1.080203451340852 -1.1618663619978706 -1.2407843008680988 -1.2407843008680988 -1.0971536521242837 -1.1997469726555803 -1.2151359707352747 -1.2407843008680988 -1.2407843008680988
leaf_weight=5.1172922104597083 6.0920145362615568 6.0920145362615612 7.5540980249643388 4.8736116290092459 5.1172922104597083 9.5035426765680295 4.8736116290092459 4.8736116290092459 8.2851397693157178 6.3356951177120244 5.3609727919101715 5.3609727919101706 7.3104174435138694 8.5288203507661802 5.3609727919101706 8.2851397693157178 5.1172922104597003 7.0667368620633999 8.7725009322166425 5.604653373360633 5.1172922104597225 5.604653373360633 6.3356951177120218 42.156740590929985 8.5288203507661784 4.873611629009253 4.8736116290092459 7.797778606414794 9.7472232580184919 4.8736116290092459
leaf_count=21 25 25 31 20 21 39 20 20 34 26 22 22 30 35 22 34 21 29 36 23 21 23 26 173 35 20 20 32 40 20
internal_value=-1.10484 -1.17318 -1.01767 -1.21197 -1.02648 -1.06491 -1.04107 -1.08689 -0.998648 -0.972463 -1.10108 -0.984075 -0.97254 -1.12041 -0.987525 -0.959603 -0.917724 -0.974308 -0.960984 -0.981811 -0.963782 -0.997343 -1.22621 -1.23011 -1.20715 -1.06638 -1.23502 -1.23769 -1.24078 -1.24078
internal_weight=235.395 125.739 25.0991 100.64 109.656 46.0556 36.5521 23.3933 63.6006 19.0071 11.453 55.3155 49.9545 18.276 42.6441 13.1588 11.453 37.5268 32.1658 25.0991 19.4944 14.3772 89.1871 84.3135 14.8645 9.74722 69.449 64.5754 56.7776 14.6208
internal_count=966 516 103 413 450 189 150 96 261 78 47 227 205 75 175 54 47 154 132 103 80 59 366 346 61 40 285 265 233 60
is_linear=0
shrinkage=1


Tree=10
num_leaves=10
num_cat=0
split_feature=11 5 0 6 10 0 0 0 13
split_gain=12.5536 8.65619 18.9358 6.86119 2.24154 4.94952 8.88178e-16 4.44089e-16 4.44089e-16
threshold=-2.095073179127763 1.2522316372632882 -0.36861557193814037 0.98425218757874933 1.290863358414275 0.19115277939570705 0.4010659111458999 -0.78844183543852586 -1.0222045392333809
decision_type=2 2 2 2 2 2 2 2 2
left_child=-1 3 -3 4 6 -6 7 -2 -9
right_child=1 2 -4 -5 5 -7 -8 8 -10
leaf_value=-4.3977321246262138 -5.1728816365816943 -3.7000975638662874 -5.1728816365816934 -4.4364896002239895 -4.4364896002239895 -5.1728816365816934 -5.1728816365816943 -5.1728816365816943 -5.1728816365816943
leaf_weight=0.25801474507898081 1.2697041402570892 0.13579723425209522 0.24443502165377129 0.13579723425209511 0.13579723425209511 0.27838433021679521 1.2561244168318806 0.33270322391763274 2.5122488336637634
leaf_count=38 187 20 36 20 20 41 185 49 370
internal_value=-5.0814 -5.1094 -4.64689 -5.1391 -5.1556 -4.93144 -5.17288 -5.17288 -5.17288
internal_weight=6.55901 6.30099 0.380232 5.92076 5.78496 0.414182 5.37078 4.11466 2.84495
internal_count=966 928 56 872 852 61 791 606 419
is_linear=0
shrinkage=1


Tree=11
num_leaves=31
num_cat=0
split_feature=10 13 14 10 2 6 14 17 0 7 3 2 3 6 2 14 2 12 13 6 16 7 14 5 8 13 9 0 12 1
split_gain=31.3089 33.6843 17.1769 17.9449 7.93118 9.27412 7.46263 6.39215 5.94003 5.22313 3.73762 6.48323 2.77095 1.44697 2.304 0.000431675 0.000136693 2.23103e-05 2.03101e-05 1.06332e-05 8.94542e-06 9.37281e-06 6.62872e-06 5.76411e-06 4.92215e-06 4.4049e-06 7.77822e-06 2.45453e-06 4.71357e-06 1.96834e-06
threshold=-0.11442137609801047 0.69977963104016816 1.0000000180025095e-35 -1.0873108076834386 -1.6584628406996067 0.66404241968243094 -0.15080872661605835 -0.40875820695264914 -0.99835496718871874 0.5634941264115636 1.2331334438678678 1.6487960263275876 0.84198387179971268 0.83712878070746777 0.28698355166933104 -0.15080872661605835 2.0378853048013754 0.53861607457720029 1.6577045999340634 0.97386700591724706 -0.71998283868130597 0.28319787197615137 -0.39120679577630985 -0.47708324707743538 0.1953915437229142 0.18090360622264173 1.0000000180025095e-35 0.4010659111458999 0.53861607457720029 1.0000000180025095e-35
decision_type=2 2 2 2 2 2 2 2 2 2 2 2 2 2 2 2 2 2 2 2 2 2 2 2 2 2 2 2 2 2
left_child=1 2 8 -4 5 -2 -3 -8 -1 -5 13 -12 15 16 19 17 18 20 22 -15 -10 -22 23 -6 -24 -26 29 28 -25 -27
right_child=4 6 3 9 10 -7 7 -9 12 -11 11 -13 -14 14 -16 -17 -18 -19 -20 -21 21 -23 24 27 25 26 -28 -29 -30 -31
leaf_value=0.11835207914421882 -0.097548292433844372 0.10702847565975356 0.34215086605918638 -0.097745104222098422 -0.097011548079396215 0.20245773443795423 0.42118301988578488 0.20480361657629814 -0.096746955437852861 0.12045759101499945 -0.096936408193748907 0.1885277245039291 0.018353740560222841 -0.097200930655870696 0.038388853979488297 -0.098487914490370365 -0.097615281179163266 -0.097382189490306637 -0.09717448714312131 -0.096815310952706748 -0.097178249075785525 -0.096881328193818395 -0.09693160567707243 -0.097005393019291758 -0.096688689586903506 -0.096838153324651122 -0.096659925291258372 -0.096743140907003145 -0.09677321563100183 -0.097005507729919949
leaf_weight=1.8384318873286272 1.8493267372250546 2.4098750799894333 2.7116074860095978 2.1231035664677611 2.2025388740003109 2.3269652724266052 2.869020089507103 2.6047726795077315 1.6810517236590401 2.269834965467453 1.8532658666372293 1.3940334096550939 2.5940881110727778 1.6589235700666898 2.2074137963354588 2.7883551418781289 2.4325561560690394 1.4304641783237455 1.5708519853651512 1.2567914277315138 1.9853003174066532 2.2887879498302937 1.4732337519526524 1.5520727895200326 7.2308902703225595 1.4539257138967516 1.9688563160598276 2.3660754077136517 2.0026325061917305 1.3603522628545759
leaf_count=23 27 27 30 31 34 31 29 25 27 26 29 18 39 25 32 37 35 21 24 20 30 36 23 24 117 23 32 38 32 21
internal_value=-0.000574726 0.0766156 0.0123275 0.139865 -0.060438 0.0696104 0.25366 0.318216 -0.0497062 0.0150004 -0.0764195 0.0256105 -0.0739044 -0.0871987 -0.0386845 -0.0974278 -0.0969021 -0.0970276 -0.0968273 -0.0970347 -0.0969424 -0.0970192 -0.0968021 -0.0968734 -0.0967591 -0.0967379 -0.0968124 -0.0968221 -0.0968746 -0.096919
internal_weight=67.7554 29.5947 21.711 7.10455 38.1607 4.17629 7.88367 5.47379 14.6065 4.39294 33.9844 3.2473 12.768 30.7371 5.12313 10.174 25.614 7.3856 23.1814 2.91571 5.95514 4.27409 21.6106 8.12332 13.4873 12.014 4.78313 5.92078 3.55471 2.81428
internal_count=966 381 300 87 585 58 81 54 213 57 527 47 190 480 77 151 403 114 368 45 93 66 344 128 216 193 76 94 56 44
is_linear=0
shrinkage=0.1


Tree=12
num_leaves=31
num_cat=0
split_feature=17 8 15 14 13 13 13 16 1 16 11 1 11 5 12 14 16 10 9 0 13 10 4 0 15 4 13 10 11 13
split_gain=18.3958 17.7489 6.98275 6.82907 19.0264 8.83269 10.0143 9.30147 8.01141 4.86155 5.2511 3.74509 3.14345 4.51592 3.04591 1.73128 2.35341 3.00101 1.71901 0.35575 0.00021533 3.07951e-05 4.30263e-05 2.49117e-05 1.04551e-05 7.52156e-06 6.76726e-06 4.91539e-06 3.95325e-06 5.51637e-06
threshold=-0.40054067916100572 -0.80287005354004737 -1.5354597976369966 -0.15080872661605835 0.33485583336630348 -0.90816585246029824 -1.2673877157955087 1.0000000180025095e-35 -0.34704268208603922 1.6659637210653202 1.6571549783954349 -0.9142901116886013 -0.28844480698696418 0.3875741950929264 0.21657989052010782 2.7339681033069607 -1.1176405986390769 0.64227040402398938 -1.0964775372233548 0.4010659111458999 -0.61166526685028322 1.0000000180025095e-35 -0.10374999994842643 0.50602247702099634 -0.18392800127298173 0.58176641557948405 0.27213455564110794 -0.81706374335415299 -0.98330187319496376 0.15239393452937103
decision_type=2 2 2 2 2 2 2 2 2 2 2 2 2 2 2 2 2 2 2 2 2 2 2 2 2 2 2 2 2 2
left_child=1 -1 -3 4 5 6 -2 8 11 10 15 -7 -5 14 -14 16 17 -4 -9 -15 -20 22 -18 -22 25 27 -27 -24 -23 -30
right_child=3 2 9 12 -6 7 -8 18 -10 -11 -12 -13 13 19 -16 -17 21 -19 20 -21 23 28 24 -25 -26 26 -28 -29 29 -31
leaf_value=0.18677651533775874 0.038637670052324879 0.14144259074919938 0.090833295831591623 -0.09863973303600973 0.40540119133820735 0.10086893886404431 0.30606527273857448 0.019712127894658288 0.2333409752764237 0.11263660954462172 0.11301714496918525 -0.099917085627849622 0.014432577617467532 -0.098037494700232486 0.17374841020215495 0.011129972310470035 -0.098152993716323814 -0.098153639833479564 -0.099294728057839024 -0.031015447959358962 -0.098154311631489258 -0.097294424836759499 -0.09751581479869742 -0.09759329506632157 -0.097395510554468281 -0.097880171850920489 -0.097609916000963803 -0.097715794612353968 -0.097406355926842339 -0.097527243316123863
leaf_weight=3.1392923519015303 2.8994662910699844 1.6462822929024685 1.583092048764221 2.7100752517580977 1.7798192650079716 1.9948099479079249 2.7080908045172754 1.6648482307791761 2.7059984877705592 1.4201956465840329 1.4142917841672886 1.7385957911610601 2.6439416334032995 1.6905300840735438 2.1974333450198174 1.8332775533199299 1.5756573006510741 1.7906406521797178 1.5916955806314992 1.4900009110569952 1.5562272742390533 1.3489849418401707 4.3731954991817448 1.6107192263007162 2.1183229312300762 1.9623193740844729 1.7553512081503866 1.7095747739076621 6.8452183604240444 8.4154579788446409
leaf_count=35 35 16 20 35 20 23 30 18 33 18 17 20 33 23 26 25 21 24 19 20 21 20 63 23 31 27 25 24 100 121
internal_value=0.000238959 -0.0421417 -0.0602018 0.0589646 0.0931428 0.0630534 0.167788 0.0173945 0.102326 -0.0689043 -0.0759246 0.00736564 -0.00552648 0.0259304 0.0867438 -0.0834922 -0.0886738 -0.00947331 -0.0677475 -0.0666393 -0.0983459 -0.0975497 -0.0976619 -0.097869 -0.097597 -0.0976405 -0.0977526 -0.097572 -0.0974585 -0.097473
internal_weight=73.9134 42.9312 39.7919 30.9823 20.2503 18.4705 5.60756 12.8629 6.4394 38.1456 36.7254 3.73341 10.732 8.02191 4.84137 35.3111 33.4778 3.37373 6.42349 3.18053 4.75864 30.1041 13.4944 3.16695 11.9188 9.80044 3.71767 6.08277 16.6097 15.2607
internal_count=966 587 552 379 242 222 65 157 76 536 518 43 137 102 59 501 476 44 81 43 63 432 191 44 170 139 52 87 241 221
is_linear=0
shrinkage=0.1


Tree=13
num_leaves=31
num_cat=0
split_feature=8 12 14 0 15 15 12 10 8 10 4 3 3 11 3 8 6 1 7 0 3 10 17 13 15 4 11 13 16 0
split_gain=206.569 66.0791 27.6636 18.5194 11.5902 10.7726 8.70306 8.49582 10.2318 4.89582 4.13341 3.67375 3.61065 3.00808 2.4034 1.70589 2.5733 1.88588 1.15083 1.07975 0.703815 0.709379 0.520782 0.35038 0.0259514 0.00929443 0.0033342 0.00349935 0.00281309 0.00275114
threshold=1.0000000180025095e-35 -0.92843765279399837 -0.39120679577630985 -0.1587024401879476 -0.39185596994436861 0.3358919204054856 0.789088662177161 -0.060371963232153332 0.7713116959900076 0.69631981688984657 -0.24085328305400852 -0.3314648444047526 0.45083429973155759 0.12846943273783562 1.0000000180025095e-35 1.0784691105324573 0.63634860191842491 -0.15796020555185186 1.6846791441532125 0.261123823312438 -0.3314648444047526 0.42607275256056082 -0.39232315136936224 0.51731773220323585 0.75174785774825958 -0.10374999994842643 -1.9561017658861632 0.13528813151340863 1.0000000180025095e-35 -0.36861557193814037
decision_type=2 2 2 2 2 2 2 2 2 2 2 2 2 2 2 2 2 2 2 2 2 2 2 2 2 2 2 2 2 2
left_child=4 22 3 11 18 -5 12 8 -4 14 -7 -3 13 20 23 16 -16 -18 19 26 21 -6 -2 25 -19 -9 -1 28 -28 -30
right_child=1 2 7 5 6 10 -8 9 -10 -11 -12 -13 -14 -15 15 -17 17 24 -20 -21 -22 -23 -24 -25 -26 -27 27 -29 29 -31
leaf_value=-0.13415401366550278 -0.098077112720645052 0.1847196213459131 0.13560020608109355 -0.10597490575294406 -0.11659533357953913 0.088305093700437931 0.044592576814185131 0.19435720425000927 -0.022989398280162866 0.086261132038723723 -0.017918429864291277 0.077673016356116675 -0.0078006794597378281 -0.033993345294946617 0.11182285324607613 0.10558263556498169 0.13820909719201752 0.20498238406047131 -0.09281412754087992 -0.094993702376985595 -0.13542554027518802 -0.072246655940287993 -0.13855353234352852 0.1682991461062969 0.19606990777725708 0.19916052487659519 -0.13608930363343213 -0.13523477444439327 -0.13969836651194345 -0.13683224606071173
leaf_weight=7.92036548256874 4.9441494941711417 6.2681718170642853 10.510237634181978 8.9196710288524645 8.7250220775604266 7.0849680900573713 6.7616392374038687 7.1202400922775313 6.6372695267200461 9.5189068317413312 7.5851128399372101 6.562604606151579 5.8749625980854026 6.5395149588584891 8.3951149284839648 7.5468436777591696 7.8976020514965048 5.428428083658221 9.067151725292204 7.296327292919158 7.7521838545799282 6.1483804732561103 8.9020921736955625 5.7031574249267569 8.2057972848415357 9.2774059474468231 14.377546444535257 16.697773307561874 5.9907557666301727 7.5949091315269452
leaf_count=33 20 23 39 36 35 27 26 26 26 36 29 25 23 26 31 28 29 20 37 30 32 25 36 21 30 34 59 69 24 31
internal_value=0.000653372 0.0829813 0.106357 0.0332795 -0.100825 -0.0193108 -0.0592787 0.137218 0.0742151 0.152855 0.0333826 0.129968 -0.0793226 -0.0937298 0.163495 0.14807 0.158784 0.177094 -0.126015 -0.131043 -0.110996 -0.0982624 -0.1241 0.189649 0.199618 0.197075 -0.136045 -0.13638 -0.137064 -0.138096
internal_weight=247.254 136.508 122.662 36.4205 110.747 23.5898 41.8017 86.241 17.1475 69.0935 14.6701 12.8308 35.0401 29.1651 59.5746 37.4738 29.9269 21.5318 68.9448 59.8777 22.6256 14.8734 13.8462 22.1008 13.6342 16.3976 52.5814 44.661 27.9632 13.5857
internal_count=966 516 460 140 450 92 167 320 65 255 56 48 141 118 219 138 110 79 283 246 92 60 56 81 50 60 216 183 114 55
is_linear=0
shrinkage=0.1


Tree=14
num_leaves=31
num_cat=0
split_feature=15 16 0 8 14 2 16 15 2 11 17 13 15 7 5 6 12 13 4 11 12 7 7 9 4 13 15 6 13 16
split_gain=1.57386 0.760944 0.000758301 3.7917e-11 3.06925e-11 1.9402e-11 1.66063e-11 1.6084e-11 2.06649e-11 1.53983e-11 1.52119e-11 1.67724e-11 2.24414e-11 1.51077e-11 9.81142e-12 9.70751e-12 9.53566e-12 9.28389e-12 8.67869e-12 7.63978e-12 7.40389e-12 6.9935e-12 6.48052e-12 8.4401e-12 6.3628e-12 7.34179e-12 7.36976e-12 5.79724e-12 4.83197e-12 3.81414e-12
threshold=1.4794957480981139 -1.0000000180025095e-35 2.1153564871058079 -0.2653445780907604 -0.39120679577630985 1.6487960263275876 0.47299044119200706 0.54381988907687262 1.0000000180025095e-35 1.1012693254290353 -0.38410562357771877 -0.30376081256295984 0.3358919204054856 0.28319787197615137 -0.47708324707743538 0.69173623744643675 0.35970708343437113 -0.018664095630253074 0.44466313247390193 0.96229791218743532 -0.82109225810830089 1.4043828897178003 -0.55769089133008509 1.0000000180025095e-35 0.99307626489623035 0.13528813151340863 -1.1196038602942229 0.65019551080042792 0.64276028765362681 0.87064820114977814
decision_type=2 2 2 2 2 2 2 2 2 2 2 2 2 2 2 2 2 2 2 2 2 2 2 2 2 2 2 2 2 2
left_child=2 -2 3 5 6 7 15 8 9 24 11 19 28 14 20 22 -14 -15 -19 29 -10 -18 27 -24 25 26 -1 -5 -13 -6
right_child=1 -3 -4 4 10 -7 -8 -9 13 -11 -12 12 16 17 -16 -17 21 18 -20 -21 -22 -23 23 -25 -26 -27 -28 -29 -30 -31
leaf_value=-0.090997677862746595 -0.094690448048359244 0.1900703264103954 -0.095400906645297379 -0.090991836591929998 -0.090993501084020434 -0.090992073709651233 -0.090996704349245117 -0.090997422235333109 -0.090997167172298055 -0.090998367873332514 -0.090991178113935228 -0.090996076072176454 -0.090992174136919651 -0.090994446501178508 -0.090994044776056549 -0.090995996684935396 -0.090994745796538962 -0.090990862192524988 -0.090993699565580427 -0.090990788498481134 -0.090994969671266579 -0.090992524591053739 -0.090993213976730339 -0.090995274638885071 -0.090994303545008537 -0.090994718670267705 -0.090995422933041997 -0.090994149230809701 -0.090994432899730124 -0.090991966934679702
leaf_weight=0.029924714879598469 0.12811547995079309 0.35077081224881101 0.68970636650919914 0.022969407378695905 0.036686472827568761 0.021022352098952979 0.034856395737733692 0.029855894856154919 0.026567197754047811 0.021536304382607341 0.035669227188918629 0.037805918487720191 0.06019532383652404 0.036045543209183961 0.052290984836872667 0.027264631586149335 0.039307194761931896 0.021696219337172806 0.021425732702482492 0.025651681935414672 0.036255217273719609 0.022169466130435467 0.033495220297481976 0.048884638119488955 0.033915894280653447 0.03306128695840016 0.02810805174522113 0.020525501458905637 0.033981955144554377 0.029027974465861917
leaf_count=28 27 49 14 23 36 21 33 28 25 20 36 36 60 35 51 26 38 22 21 26 35 22 33 47 33 32 27 20 33 29
internal_value=-0.0450367 0.113889 -0.0929059 -0.0909943 -0.0909937 -0.090995 -0.0909947 -0.0909952 -0.090995 -0.0909959 -0.0909931 -0.0909934 -0.0909939 -0.0909943 -0.0909951 -0.0909943 -0.0909931 -0.0909933 -0.0909923 -0.0909923 -0.0909959 -0.0909939 -0.0909939 -0.0909944 -0.0909955 -0.0909959 -0.0909966 -0.0909929 -0.0909953 -0.0909928
internal_weight=2.06879 0.478886 1.5899 0.900196 0.508491 0.391705 0.187996 0.370683 0.340827 0.146546 0.320495 0.284826 0.19346 0.194281 0.115113 0.153139 0.121672 0.0791675 0.043122 0.0913661 0.0628224 0.0614767 0.125875 0.0823799 0.12501 0.0910941 0.0580328 0.0434949 0.0717879 0.0657144
internal_count=966 76 890 876 498 378 182 357 329 140 316 280 189 189 111 149 120 78 43 91 60 60 123 80 120 87 55 43 69 65
is_linear=0
shrinkage=0.1


Tree=15
num_leaves=31
num_cat=0
split_feature=11 0 1 4 0 0 4 6 6 8 15 13 15 15 11 1 0 16 1 3 14 0 3 15 7 5 15 13 15 13
split_gain=9.06144 14.2893 2.58673 6.91155 2.2793 0.000376909 0.00024905 0.000141068 4.28461e-05 8.75066e-09 7.11092e-09 5.23685e-09 5.21575e-09 5.18724e-09 4.57679e-09 3.95236e-09 3.44071e-09 3.27865e-09 3.07748e-09 2.59899e-09 2.50152e-09 4.49766e-09 2.73757e-09 2.48671e-09 2.16906e-09 2.15427e-09 2.05843e-09 1.8965e-09 1.61031e-09 1.00004e-09
threshold=-1.2612446996781637 2.3602551408143664 -0.9142901116886013 0.99307626489623035 0.50602247702099634 2.1153564871058079 1.8156959635297227 0.66750414690293158 0.98425218757874933 -0.2653445780907604 1.1676037950910334 0.13528813151340863 -1.1196038602942229 0.3358919204054856 -0.56638763347016396 1.0000000180025095e-35 0.50602247702099634 1.0000000180025095e-35 -0.725207635154414 0.45083429973155759 -0.15080872661605835 -0.50855765977160217 -0.3314648444047526 -1.2235678446299161 -0.27739463689467297 1.0000000180025095e-35 0.12796395173409866 -0.18972212578987716 -0.39185596994436861 -0.42920336801335085
decision_type=2 2 2 2 2 2 2 2 2 2 2 2 2 2 2 2 2 2 2 2 2 2 2 2 2 2 2 2 2 2
left_child=1 4 3 8 7 6 9 23 14 11 15 12 17 19 -2 18 27 -4 -11 29 22 -22 -17 -1 -23 28 -20 -16 -13 -14
right_child=2 -3 5 -5 -6 -7 -8 -9 -10 10 -12 25 13 -15 16 20 -18 -19 26 -21 21 24 -24 -25 -26 -27 -28 -29 -30 -31
leaf_value=-0.091426332951686104 -0.091437747657605137 0.78772026280504415 -0.09143007920432604 0.41687551303545672 0.25191341106697951 -0.094566804411364433 -0.094006799529615506 -0.094942677498420142 -0.093380949587558673 -0.091427563009442256 -0.091408873744942942 -0.09142809659069713 -0.09142363789345119 -0.091440613603008217 -0.09143284721233369 -0.09142244698025237 -0.091407512930604604 -0.09144853000975621 -0.091407451045579041 -0.091413747101848977 -0.09143361453083404 -0.091408680408317067 -0.091439213147566145 -0.091410928500328059 -0.091422055484538994 -0.091407767264833406 -0.091419444314132098 -0.091418073456883076 -0.091415173219896839 -0.091434220381764117
leaf_weight=0.22246711468324065 0.15161249181255698 0.33996561914682388 0.16808478254824866 0.39095429005101323 0.28859900776296854 0.48978206887841214 0.4088539658114313 0.15567518025636673 0.13248756993561983 0.17359651206061244 0.5980549189262091 0.23566163191571832 0.27687033731490363 0.20331327803432941 0.14399979589506984 0.17802365543320775 0.19678571587428451 0.2255334067158401 0.34572178637609008 0.22918989090248942 0.21956036519259126 0.20920821279287249 0.21500011952593834 0.19811473973095395 0.28838843572885042 0.12506923964247108 0.24418467655777931 0.21909179957583524 0.16318148700520385 0.13180950889363796
leaf_count=36 24 8 27 16 13 12 27 5 10 28 100 38 45 32 23 29 33 35 58 38 35 35 34 33 47 21 40 36 27 21
internal_value=-0.0130374 0.238434 -0.0606453 0.0692843 0.0225154 -0.0919285 -0.09165 -0.092371 -0.0917298 -0.0914222 -0.0914184 -0.0914276 -0.0914312 -0.0914267 -0.0914223 -0.0914214 -0.0914182 -0.0914407 -0.0914159 -0.0914223 -0.0914252 -0.0914217 -0.0914316 -0.0914191 -0.0914164 -0.0914192 -0.0914124 -0.0914239 -0.0914228 -0.0914271
internal_weight=7.56884 1.20482 6.36402 1.23493 0.864856 5.12909 4.63931 0.576257 0.843977 4.23045 2.47174 1.75871 1.2348 0.841183 0.71149 1.87368 0.559877 0.393618 0.763503 0.63787 1.11018 0.717157 0.393024 0.420582 0.497597 0.523912 0.589906 0.363092 0.398843 0.40868
internal_count=966 95 871 142 87 729 717 74 126 690 406 284 198 136 116 306 92 62 126 104 180 117 63 69 82 86 98 59 65 66
is_linear=0
shrinkage=0.1


Tree=16
num_leaves=31
num_cat=0
split_feature=15 3 6 4 10 7 12 8 11 12 13 5 7 15 16 15 1 10 12 11 2 6 8 4 2 13 1 13 9 17
split_gain=30.611 7.30483 10.753 11.4372 4.85129 9.68951 2.40388 1.25609 2.53042e-05 1.67457e-05 3.21494e-06 2.44803e-06 3.10817e-07 1.69615e-07 1.00632e-07 8.73165e-08 7.75406e-08 7.49294e-08 9.10444e-08 8.15513e-08 7.32879e-08 6.66974e-08 7.88462e-08 9.19108e-08 6.38773e-08 6.6221e-08 5.32593e-08 9.51749e-08 4.22618e-08 3.3989e-08
threshold=1.843369693273041 -0.87907424530016953 0.82674359904596562 0.85597298179064818 -1.3575578720127242 0.84379038084697577 2.2382514904340769 -2.0314997117098463 -0.70535904671176397 -1.3757101306510708 -1.4213399429391704 -0.76530239446755599 1.9649753985886245 1.1676037950910334 -1.515298358596848 1.5834597324338073 1.0000000180025095e-35 -0.22252020182972471 -1.0715648457082614 -1.9561017658861632 1.0000000180025095e-35 0.622501693036422 0.96328508007903857 -1.0634729816875008 1.0000000180025095e-35 -0.47481884272258396 1.0000000180025095e-35 -0.61166526685028322 1.0000000180025095e-35 -0.40875820695264914
decision_type=2 2 2 2 2 2 2 2 2 2 2 2 2 2 2 2 2 2 2 2 2 2 2 2 2 2 2 2 2 2
left_child=1 2 3 8 5 -3 7 -6 -1 -9 -11 -10 13 14 -12 -15 24 19 -19 -16 -21 29 26 -24 25 -13 28 -28 -23 -20
right_child=-2 4 -4 -5 6 -7 -8 9 11 10 12 16 -14 15 17 -17 -18 18 21 20 -22 22 23 -25 -26 -27 27 -29 -30 -31
leaf_value=-0.093294616778795747 0.82803882987728938 0.44154585876639879 0.43417501890286447 0.30571099069370455 0.043402091725860563 -0.093299221646078789 0.17166202409337639 -0.093043540434222166 -0.092608298566408634 -0.092681856569154744 -0.09232897736442866 -0.092329832668190559 -0.092454213344397906 -0.092340727814000781 -0.092360977615631293 -0.092396130120735595 -0.092394024511198908 -0.09241674074139733 -0.092326366453953729 -0.092437251812722027 -0.092391740706812664 -0.092336241252421125 -0.092435176460527069 -0.092376287349830999 -0.092310988996223031 -0.092387831774897081 -0.092426328504234587 -0.092367900329239402 -0.092369620065232583 -0.092364593979605558
leaf_weight=0.39151278696954284 0.43380053713917632 0.56087713874876921 0.75645926967263211 1.0021541677415369 0.72390558943152505 0.85518613085150719 0.37808592058718282 0.40064164996147056 0.53047713823616582 0.35427075996994872 0.38221500441431722 0.34995343349874064 0.48141055926680643 2.0311522744596009 0.44222848117351521 0.33080339245498169 0.50370345823466767 0.49365200474858006 0.41545887105166912 0.58958095498382757 0.88489620946347713 0.63558321073651336 0.44604618288576603 0.6530730854719875 0.34517018124461174 0.44998782314360519 0.37218058668076981 1.1110398620367048 0.94079352729022503 0.52840446308254918
leaf_count=17 15 22 19 38 17 34 17 17 28 19 23 21 27 121 26 19 29 28 25 33 51 38 25 38 21 26 21 65 55 31
internal_value=-0.00222817 -0.0218657 0.0916673 0.0191522 -0.0569463 0.118543 -0.0766761 -0.0843613 -0.0925544 -0.0924084 -0.0923855 -0.0924214 -0.0923757 -0.092372 -0.092379 -0.0923485 -0.0923613 -0.0923816 -0.0923757 -0.0923986 -0.0924099 -0.0923718 -0.0923772 -0.0924002 -0.0923469 -0.0923625 -0.092369 -0.0923826 -0.0923562 -0.0923478
internal_weight=18.7747 18.3409 4.32942 3.57296 14.0115 1.41606 12.5954 12.2173 2.5708 11.4934 11.0928 2.17929 10.7385 10.2571 7.89515 2.36196 1.64881 7.51294 5.59623 1.91671 1.47448 5.10258 4.15872 1.09912 1.14511 0.799941 3.0596 1.48322 1.57638 0.943863
internal_count=966 951 199 180 752 56 696 679 142 662 645 125 626 599 459 140 97 436 326 110 84 298 242 63 68 47 179 86 93 56
is_linear=0
shrinkage=0.1


Tree=17
num_leaves=31
num_cat=0
split_feature=14 16 3 12 12 11 11 15 4 13 7 12 15 10 5 4 13 15 2 15 5 13 1 2 13 13 15 6 6 17
split_gain=5.33415 8.33552 10.5182 1.54104e-05 4.63211e-06 1.49722e-06 8.04467e-07 4.76287e-10 3.90058e-10 2.06606e-10 1.71896e-10 2.47202e-10 2.01827e-10 1.47425e-10 1.1961e-10 1.18378e-10 1.10166e-10 9.84324e-11 1.53516e-10 1.0972e-10 9.48171e-11 9.08826e-11 7.555e-11 6.67933e-11 6.28179e-11 1.27823e-10 7.68307e-11 5.2696e-11 4.95294e-11 5.59393e-11
threshold=-0.63160486493656121 1.0000000180025095e-35 1.0000000180025095e-35 -1.3757101306510708 -1.3220374333082223 -2.095073179127763 -2.095073179127763 -0.39185596994436861 0.17045656626273775 0.69977963104016816 -0.55769089133008509 -0.74952866165116927 0.3358919204054856 0.58822099115813231 -0.76530239446755599 -0.51505984926517256 0.18090360622264173 -1.4314958133013029 1.0000000180025095e-35 -1.3275318289656097 1.0000000180025095e-35 -0.18972212578987716 1.0000000180025095e-35 0.28698355166933104 0.8081163834745968 0.18090360622264173 -1.1196038602942229 0.64327205635942641 0.64673378357992728 -0.35123551241114503
decision_type=2 2 2 2 2 2 2 2 2 2 2 2 2 2 2 2 2 2 2 2 2 2 2 2 2 2 2 2 2 2
left_child=1 4 -3 -2 -1 -5 -6 13 9 10 11 20 23 17 -10 -14 -13 18 -7 -19 -9 -8 -11 -12 25 26 -21 -23 -16 -30
right_child=3 2 -4 5 6 7 21 8 14 22 12 16 15 -15 28 -17 -18 19 -20 24 -22 27 -24 -25 -26 -27 -28 -29 29 -31
leaf_value=-0.092120550583451033 -0.092204791173010961 -0.091686356276869524 1.2006474441778647 -0.091466315908048643 -0.091463326905394368 -0.091083474401887299 -0.091083055849028038 -0.091079961740904547 -0.091078972425079688 -0.091073974465944313 -0.091080971506372274 -0.091074506817658704 -0.091086879935540502 -0.091076187277074144 -0.091073029392319524 -0.09108108677079732 -0.091079910672015221 -0.091086199678603749 -0.091075214709098018 -0.091085303673947488 -0.091085625418037594 -0.091075351580954492 -0.091078071556977822 -0.091075777506644029 -0.091085314765684516 -0.091077666040627531 -0.091081053316829641 -0.091080121444855 -0.091076673564324917 -0.091072431679019836
leaf_weight=0.07524876156821847 0.13703414332121622 0.10619171662256122 0.15476073254831135 0.10645377263426792 0.0860926304012537 0.044102715793997049 0.056533079594373703 0.080258731730282085 0.073646773584187031 0.073513488285243511 0.060000521014444086 0.11764065572060645 0.089915617951191962 0.044280914939008653 0.13237257383298129 0.058041885728016496 0.055535728111863136 0.081019480479881167 0.045943769626319408 0.072165159974247217 0.0467925148550421 0.04206468851771239 0.11606786923948675 0.042152807931415737 0.048765555024147034 0.067023161333054304 0.1035590061219408 0.051540323998779058 0.1252464409917593 0.041352973436005414
leaf_count=6 9 27 31 16 13 21 27 39 36 37 29 59 42 22 67 28 27 38 23 34 22 21 57 21 23 33 50 25 62 21
internal_value=-0.00914446 0.25784 0.674746 -0.0911841 -0.0914373 -0.091103 -0.0912196 -0.0910792 -0.091078 -0.0910793 -0.0910803 -0.0910787 -0.0910822 -0.0910817 -0.0910754 -0.0910846 -0.0910762 -0.0910822 -0.0910793 -0.0910829 -0.091082 -0.0910799 -0.0910765 -0.0910788 -0.091082 -0.0910814 -0.0910828 -0.091078 -0.0910745 -0.0910756
internal_weight=2.43532 0.572432 0.260952 1.86289 0.311479 1.72585 0.236231 1.6194 1.11254 0.73992 0.550338 0.300228 0.250111 0.50686 0.372619 0.147958 0.173176 0.462579 0.0900465 0.372532 0.127051 0.150138 0.189581 0.102153 0.291513 0.242747 0.175724 0.093605 0.298972 0.166599
internal_count=966 150 58 816 92 807 86 791 547 361 267 147 120 244 186 70 86 222 44 178 61 73 94 50 140 117 84 46 150 83
is_linear=0
shrinkage=0.1


Tree=18
num_leaves=31
num_cat=0
split_feature=15 17 9 14 17 1 1 12 13 5 14 15 6 7 2 0 2 10 13 17 11 0 12 12 15 16 11 8 0 12
split_gain=20.74 16.2829 9.31946 6.6571 9.91189 9.19937 6.38021 5.53742 5.13919 8.06633 3.93652 3.7986 6.25514 3.86346 3.81525 3.16796 5.15605 2.44064 1.83746 2.63633 0.991322 0.452486 0.000294275 0.000114982 0.000108254 6.96253e-05 4.70106e-05 1.30189e-05 1.1598e-05 5.87829e-06
threshold=-1.4314958133013029 -0.39232315136936224 1.5199011394940449 -0.39120679577630985 -0.40875820695264914 1.0000000180025095e-35 -0.34704268208603922 0.86065225863429273 -0.4520111053679674 -0.47708324707743538 3.4551623107877152 -1.1196038602942229 -1.3749149131925047 2.2452716530240369 -0.68573964451513791 1.1007763503132093 1.0000000180025095e-35 0.85846805548741789 -1.1020316199745388 -0.37588809578607535 -0.28844480698696418 -0.92838392327198771 -0.92843765279399837 -0.46327427582264274 -0.39185596994436861 1.0000000180025095e-35 0.26744084597943557 -1.455579559442753 -0.57852870368833309 0.35970708343437113
decision_type=2 2 2 2 2 2 2 2 2 2 2 2 2 2 2 2 2 2 2 2 2 2 2 2 2 2 2 2 2 2
left_child=1 6 3 4 5 7 -1 -2 9 -6 11 12 14 15 -5 18 -17 -11 19 -13 -10 -20 -23 -22 -24 -16 -25 -26 29 -29
right_child=2 -3 -4 10 8 -7 -8 -9 20 17 -12 13 -14 -15 25 16 -18 -19 21 -21 23 22 24 26 27 -27 -28 28 -30 -31
leaf_value=-0.030825553163397308 0.1380324382501745 0.40750895677967081 0.16865101115736159 0.085527366775290048 0.18958424618698788 0.3073499525328024 0.19023637337297963 -0.097755191977492717 -0.024878078910771505 -0.098103937750394207 0.084913766795277942 -0.098373813407868937 0.17205445713860482 0.082621228327476592 -0.098056107704263873 0.14568959583109711 -0.098400996393110757 0.033239230903348342 -0.048698033657738914 0.069232525923215466 -0.099219752355971302 -0.098882495315327057 -0.098416474867774106 -0.097730816868097301 -0.09803045835844601 -0.098933646482568055 -0.098436907405626606 -0.097951236906663325 -0.097677229937820964 -0.097702542986890073
leaf_weight=2.8645428195595741 2.5202939137816456 1.9612054228782643 2.6171124204993239 1.6265834271907804 2.4234592616558075 1.9644041806459425 2.39899692684412 1.6468416005372999 2.6981133371591595 2.6628019511699712 2.1734690740704528 1.9919109567999842 1.8428303450345982 1.6506004780530918 1.6318081840872767 1.6316697821021073 1.8427378311753271 3.0186001285910606 2.0201589837670317 1.7745084613561584 1.4891513958573366 3.1424083709716824 2.8531751409173074 1.4274583905935196 1.5494266003370381 2.0275336056947708 2.7778656855225563 2.8614981546998122 12.123223744332781 1.423109248280525
leaf_count=31 28 19 33 20 29 22 24 23 33 36 26 26 22 20 22 19 24 36 27 20 18 39 37 20 21 25 36 39 171 20
internal_value=0.000320507 0.161568 -0.0164627 -0.0237156 0.0203889 0.128949 0.0699292 0.0448498 -0.0199591 0.0368364 -0.0463128 -0.0531048 0.0134083 -0.0667047 -0.0419005 -0.0741257 0.0162301 -0.0283197 -0.0846818 -0.0194079 -0.0748075 -0.0941473 -0.0979805 -0.0984646 -0.0978443 -0.0985423 -0.0981972 -0.0977534 -0.0977272 -0.0978686
internal_weight=76.6375 7.22475 69.4128 66.7956 22.629 6.13154 5.26354 4.16714 16.4975 8.10486 44.1667 41.9932 7.12876 34.8644 5.28593 33.2138 3.47441 5.6814 29.7394 3.76642 8.39259 25.973 23.9528 5.69448 20.8104 3.65934 4.20532 17.9573 16.4078 4.28461
internal_count=966 74 892 859 281 73 55 51 208 101 578 552 89 463 67 443 43 72 400 46 107 354 327 74 288 47 56 251 230 59
is_linear=0
shrinkage=0.1


Tree=19
num_leaves=31
num_cat=0
split_feature=8 10 12 1 8 0 7 11 13 9 15 8 12 8 12 13 13 11 6 6 15 11 10 2 11 12 16 8 17 15
split_gain=16.5818 31.418 5.90231 6.93119 6.56869 9.57695 4.71823 3.1458 8.32701 4.06695 2.79685 1.94412 3.68505 1.04518 0.00128749 3.11658e-05 2.91873e-05 2.88933e-06 2.01107e-06 2.74887e-06 1.95401e-06 1.63394e-06 1.37257e-06 9.51847e-07 4.54843e-07 4.54232e-07 3.71429e-07 4.51669e-07 2.53256e-07 2.42516e-07
threshold=0.7713116959900076 -0.16847078896386758 0.35970708343437113 -0.53612515862022658 1.0784691105324573 0.33109486722916898 2.2452716530240369 0.68435508570423542 0.64276028765362681 -1.0000000180025095e-35 0.64778387341256605 -1.071632791264691 0.14501629406297614 -1.954710358074234 -0.033892697079852964 -0.21823179748314783 -1.233176109763584 1.1012693254290353 0.88040037096372714 0.82674359904596562 -0.18392800127298173 0.26744084597943557 -0.49276726615901029 1.0651621086169063 0.96229791218743532 -0.82109225810830089 -1.1176405986390769 -0.41892328536198525 -0.40875820695264914 -0.91167589162283591
decision_type=2 2 2 2 2 2 2 2 2 2 2 2 2 2 2 2 2 2 2 2 2 2 2 2 2 2 2 2 2 2
left_child=6 -2 3 10 14 -6 7 11 9 15 -3 12 13 -1 21 17 -13 -9 19 -15 22 -5 26 25 -4 -22 -18 29 -29 -28
right_child=1 2 24 4 5 -7 -8 8 -10 -11 -12 16 -14 18 -16 -17 20 -19 -20 -21 23 -23 -24 -25 -26 -27 27 28 -30 -31
leaf_value=0.044531418817531698 0.49917993558793256 0.38233904769666904 -0.093580938655052529 -0.093642984952184094 0.33908384971732208 -0.093713407963908618 0.21705769283678256 -0.093578690041078938 0.33398537088947178 0.16259906913938577 0.12807686361101941 -0.09422344939319123 0.19674567412541311 -0.093716145790301741 -0.098387249519373124 -0.094455032161292807 -0.093563623934566145 -0.093801183925564149 -0.093674604143643661 -0.094000728147837123 -0.093634090820914243 -0.093865378068402658 -0.093770596890873761 -0.093662283695330181 -0.093670635983530162 -0.093546934033952686 -0.093685370547898328 -0.093639015987840635 -0.09357220024078465 -0.093617044037483332
leaf_weight=0.72187416069209653 1.6699337288737304 0.8386451918631781 2.0128340981900696 0.62248114496469387 1.1496298834681513 0.92078186757862557 0.64248541370034118 1.1553230285644538 0.69923137500882138 0.77702702581882421 0.89357034116983414 0.83302858844399885 0.68787356838583935 0.63430689461529899 1.1008058041334137 0.69237864390015591 0.6651256680488612 1.179575005546212 0.88097195513546456 0.73010074347257614 0.68264264799654473 0.70398425683379173 0.84093488752841938 1.0347720887511966 0.78612288646399964 4.8205287866294313 2.212240399792794 1.3068568781018259 1.0024197120219445 0.67888514697551716
leaf_count=21 19 23 66 20 22 29 18 38 16 19 18 23 20 20 15 18 22 36 28 21 22 21 26 33 25 160 70 42 33 22
internal_value=-0.00204715 0.100717 0.0270187 0.0812129 0.0157537 0.146604 -0.0501029 -0.0578222 0.0168133 -0.041483 0.251177 -0.0767774 -0.0117964 -0.0601409 -0.0958591 -0.0938658 -0.0936493 -0.0936911 -0.0937924 -0.0938684 -0.0936132 -0.093761 -0.0936511 -0.0935743 -0.0936061 -0.0935577 -0.093634 -0.093643 -0.09361 -0.0936693
internal_weight=33.5774 10.6988 9.02886 6.2299 4.49768 2.07041 22.8786 22.2361 4.50354 3.8043 1.73222 17.7326 3.65513 2.96725 2.42727 3.02728 14.0774 2.3349 2.24538 1.36441 13.2444 1.32647 6.70646 6.53794 2.79896 5.50317 5.86553 5.2004 2.30928 2.89113
internal_count=966 258 239 148 107 51 708 690 127 111 41 563 110 90 56 92 453 74 69 41 430 41 215 215 91 182 189 167 75 92
is_linear=0
shrinkage=0.1


Tree=20
num_leaves=31
num_cat=0
split_feature=8 10 14 9 14 11 10 12 6 2 11 17 0 1 15 6 15 15 16 7 4 3 6 2 5 13 10 14 2 1
split_gain=92.418 59.4199 13.3453 11.8239 8.32035 8.04586 8.34809 6.38525 6.00064 5.79827 5.45707 6.83655 5.7631 6.63628 5.42313 4.00829 3.58744 4.99568 3.11129 2.65745 2.2125 1.76517 1.05299 0.916737 2.13502 0.66245 0.448025 0.00159888 0.00100622 0.000921643
threshold=1.0000000180025095e-35 0.85846805548741789 -0.63160486493656121 1.0000000180025095e-35 -0.15080872661605835 -0.56638763347016396 -1.4116072848785812 0.789088662177161 -1.4372260031615178 -0.29665036604135031 -0.70535904671176397 -0.40054067916100572 1.2407184381466712 -0.34704268208603922 0.23192793606979212 -1.3956852765155092 -0.91167589162283591 0.95967582641964644 -0.322325078723535 0.5634941264115636 -1.6118861141098291 -0.3314648444047526 0.79212632684095829 -0.68573964451513791 -1.0000000180025095e-35 2.0625419379785073 0.64227040402398938 -0.39120679577630985 0.67607283014311859 0.40928722405071033
decision_type=2 2 2 2 2 2 2 2 2 2 2 2 2 2 2 2 2 2 2 2 2 2 2 2 2 2 2 2 2 2
left_child=4 2 14 -3 7 -6 -7 8 -1 -5 11 -10 13 -12 -2 -8 -17 -18 -11 21 -4 -15 -13 24 -22 26 27 -25 -29 -30
right_child=1 3 20 9 5 6 15 -9 10 18 12 22 -14 19 -16 16 17 -19 -20 -21 23 -23 -24 25 -26 -27 -28 28 29 -31
leaf_value=0.18069614811876072 0.066017768995329087 -0.049988358576025627 -0.044645393643752848 0.042428566475039328 0.12938028999478249 0.095860868913355449 -0.067694598453395469 0.0065578641705032626 0.11861329198980451 0.099039633267349936 0.022651457827516479 -0.043626288308638489 0.20851642260074513 0.11002551742248115 -0.072535458331884559 0.074541395685899278 -0.065426554235168397 0.052989726294647849 0.20005890769487125 0.073992662791582536 -0.047699267630458023 0.18544704105506651 0.021128862501411525 -0.12818094467569818 -0.12686338425994559 -0.083883149579556268 -0.10022378151433065 -0.12623560705381628 -0.1260540377233586 -0.1277379419502653
leaf_weight=7.9681847542524329 6.2829849869012815 5.9760555475950268 4.6480981707572928 7.7147158384323182 7.3499275445938101 9.7321333736181241 8.7504052668809873 8.3481283336877805 6.7530786991119411 5.6977162361145055 9.0809088051319105 5.0615376234054548 5.1025287061929694 5.4384045749902716 5.1328394860029221 6.5085440576076534 8.3283626735210436 6.2259095162153235 6.5579310953617007 6.3982594758272162 6.0385845452547073 7.2264329642057481 4.9837117940187454 7.2547993659973065 7.8167646527290326 4.5295490324497214 7.2224463373422614 29.258427590131767 4.6437972933053961 10.83192767202854
leaf_count=31 25 25 20 31 29 39 36 34 26 22 36 20 20 21 22 26 34 25 25 25 26 28 20 32 35 20 32 132 21 48
internal_value=0.00080396 -0.060499 -0.0975969 0.0734153 0.0655442 0.0333014 0.0154442 0.0883291 0.100096 0.110343 0.0872628 0.040807 0.110735 0.0930075 0.00372078 -0.0108068 0.0128268 -0.0147714 0.153095 0.126522 -0.11166 0.15306 -0.0114996 -0.115674 -0.0923612 -0.120742 -0.123562 -0.126804 -0.126581 -0.127233
internal_weight=232.863 119.607 93.6602 25.9464 113.256 46.8953 39.5454 66.3612 58.013 19.9704 50.0449 16.7983 33.2465 28.144 11.4158 29.8132 21.0628 14.5543 12.2556 19.0631 82.2444 12.6648 10.0452 77.5963 13.8553 63.7409 59.2114 51.989 44.7342 15.4757
internal_count=966 516 413 103 450 189 160 261 227 78 196 66 130 110 47 121 85 59 47 74 366 49 40 346 61 285 265 233 201 69
is_linear=0
shrinkage=0.1


Tree=21
num_leaves=31
num_cat=0
split_feature=8 14 0 10 7 5 5 11 11 6 10 15 10 13 4 12 5 14 1 11 15 1 15 14 2 12 5 5 12 0
split_gain=6.605 19.0352 10.1736 2.16959 4.25569 4.96677e-05 3.31307e-05 1.02419e-05 1.70953e-06 1.57926e-06 2.75075e-07 1.02853e-08 8.32978e-09 4.49209e-09 3.80137e-09 3.68218e-09 2.75245e-09 3.07052e-09 2.97103e-09 3.03735e-09 2.8099e-09 2.31018e-09 2.054e-09 1.74943e-09 1.77464e-09 1.72348e-09 1.41171e-09 1.30996e-09 9.62076e-10 6.43674e-10
threshold=-0.64929134626882246 -0.63160486493656121 0.89086321856301642 1.290863358414275 -0.27739463689467297 1.2522316372632882 1.540450784653409 -2.095073179127763 -1.4002161129197634 0.94271146093274039 0.80441864262156082 -0.39185596994436861 0.69631981688984657 -0.64587687288220808 -0.37795656615959056 0.14501629406297614 -0.47708324707743538 -0.39120679577630985 1.7328645597900223 0.96229791218743532 1.1676037950910334 -0.9142901116886013 -0.49581995428006215 -1.0000000180025095e-35 1.0000000180025095e-35 1.0574521488914048 1.0000000180025095e-35 -0.47708324707743538 -0.35592888113694526 0.89086321856301642
decision_type=2 2 2 2 2 2 2 2 2 2 2 2 2 2 2 2 2 2 2 2 2 2 2 2 2 2 2 2 2 2
left_child=1 -1 5 6 -5 8 7 -2 -3 10 15 13 16 -9 26 27 17 -13 19 20 25 -15 -17 24 -23 -18 -14 -10 -29 -22
right_child=3 2 -4 4 -6 -7 -8 11 9 -11 -12 12 14 21 -16 22 18 -19 -20 -21 29 23 -24 -25 -26 -27 -28 28 -30 -31
leaf_value=0.85897415675699806 -0.092015065383896769 -0.091874864761127842 0.52630512652785733 -0.091666315716684627 0.5723419715061896 -0.092964129952250368 -0.092813295845726798 -0.091442987739970186 -0.091438951842778324 -0.091828291635072432 -0.091578922702661103 -0.091432616800248806 -0.091441961235574826 -0.091435345052422068 -0.091416073730091002 -0.091426478289296675 -0.091418844999415605 -0.091415684080598886 -0.091426475235357185 -0.09139795258557469 -0.091409585181750963 -0.091424972522286971 -0.091409405797859 -0.09143288077376896 -0.09141325873799068 -0.09140795543687788 -0.091428220533055354 -0.091422836977547772 -0.09143444361237954 -0.091402248847553436
leaf_weight=0.31539175054058466 0.31329993437975634 0.13396180560812343 0.32359552150592197 0.26876643160358071 0.15060896053910244 0.30700349621474732 0.19092412758618582 0.17843091348186135 0.22146059386432149 0.12589438073337078 0.14258503448218107 0.15647511463612318 0.16543172392994165 0.18856941210106015 0.14550107903778542 0.16072969464585185 0.67682737251743696 0.33933557057753261 0.14230619976297032 0.15212169615551818 0.47913191327825189 0.3207521797157824 0.12549064122140408 0.13774368679150917 0.21672222390770912 0.18508430244401097 0.13643369497731328 0.14126183139160253 0.14443838968873046 0.15937413368374109
leaf_count=29 24 13 37 34 20 17 12 28 35 13 20 25 26 30 24 26 111 56 23 26 80 52 21 22 36 31 22 23 23 27
internal_value=-0.00399612 0.141571 0.0176882 -0.0702778 0.146797 -0.0918295 -0.0915257 -0.0914656 -0.0915382 -0.0914958 -0.091451 -0.0914201 -0.0914169 -0.0914285 -0.0914294 -0.0914281 -0.0914144 -0.091421 -0.0914126 -0.0914114 -0.0914128 -0.0914256 -0.091419 -0.0914228 -0.0914202 -0.0914165 -0.0914358 -0.0914332 -0.0914287 -0.0914078
internal_weight=6.84565 2.14181 1.82642 4.70384 0.419375 1.50283 4.28447 4.09354 1.19582 1.06186 0.935966 3.78024 2.73802 1.04222 0.447366 0.793381 2.29066 0.495811 1.79485 1.65254 1.50042 0.863788 0.28622 0.675218 0.537474 0.861912 0.301865 0.507161 0.2857 0.638506
internal_count=966 257 228 709 54 191 655 643 174 161 148 619 451 168 72 128 379 81 298 275 249 140 47 110 88 142 48 81 46 107
is_linear=0
shrinkage=0.1


Tree=22
num_leaves=31
num_cat=0
split_feature=10 14 17 13 12 5 0 2 6 0 12 3 2 3 7 6 6 8 13 2 12 6 11 10 15 16 13 13 16 0
split_gain=24.4486 21.1292 9.84516 8.26312 7.84696 8.54795 6.82153 6.72245 6.43848 6.30554 4.43242 3.60901 6.46333 2.53911 1.41898 0.775022 1.70941 0.00187355 0.000264742 7.8272e-05 7.38959e-05 3.14653e-05 2.9495e-05 2.65062e-05 1.75844e-05 1.58096e-05 1.16663e-05 2.93795e-05 1.10511e-05 1.23061e-05
threshold=-0.11442137609801047 -0.15080872661605835 -0.40875820695264914 0.93355893892498776 -0.71374686342260352 -0.18886409968731482 1.0000000180025095e-35 -1.6584628406996067 0.66404241968243094 -0.50855765977160217 0.35970708343437113 0.84198387179971268 1.6487960263275876 1.2331334438678678 0.5634941264115636 0.83712878070746777 0.85963000764072273 -0.49571263899759771 0.18090360622264173 2.0378853048013754 0.789088662177161 0.69173623744643675 0.12846943273783562 0.75036922975570375 -0.49581995428006215 1.0000000180025095e-35 0.8081163834745968 0.20941327791591241 -0.71998283868130597 -0.36861557193814037
decision_type=2 2 2 2 2 2 2 2 2 2 2 2 2 2 2 2 2 2 2 2 2 2 2 2 2 2 2 2 2 2
left_child=1 3 9 13 -4 14 -7 8 -2 10 -3 15 25 18 17 19 -17 -6 20 21 28 24 -23 -18 -9 -13 27 -26 -1 -30
right_child=7 2 4 -5 5 6 -8 11 -10 -11 -12 12 -14 -15 -16 16 23 -19 -20 -21 -22 22 -24 -25 26 -27 -28 -29 29 -31
leaf_value=-0.096114341421355831 -0.096913657839750908 0.036109190002451524 0.25193982270406035 0.14394342044143513 -0.10132051801890954 0.2341764906716613 -0.0055989074709599969 -0.096464878352788302 0.15004996101850296 0.32055785970609008 0.23392573716283188 -0.096007461376586251 0.13608426018780542 0.05017109613561288 0.013346401704519568 0.036892007168235035 -0.096788107735210238 -0.096448170658816806 -0.097993670135951963 -0.096780970296595215 -0.097163090266787364 -0.096212649728971533 -0.096749011295859971 -0.096163517310494787 -0.095982625975489733 -0.096487294739498713 -0.095844597124925407 -0.096336607980862243 -0.096625338638956074 -0.09629012746345178
leaf_weight=1.4604112394154043 1.6956685557961453 2.1901567652821541 1.9661187790334249 2.0308961048722258 1.7773810066282765 2.6735659353434968 2.1332276314496994 1.0705477297306156 2.7968038469552994 3.2713298797607449 2.3460058942437172 1.3779573217034333 2.1228803731501102 1.3583812564611424 1.7265950739383695 1.4858889207243908 1.3057885505259039 1.4194958880543711 1.4301808439195154 2.1694082841277114 1.3899702578783033 3.6577188074588767 1.4245596267282961 1.4165077060461042 7.9727060720324534 1.3687078058719633 2.415491744875907 3.3214679919183254 1.8887708522379369 2.6065526716411185
leaf_count=26 27 25 18 20 20 25 26 18 31 25 17 25 25 21 17 21 21 24 20 35 21 64 23 25 145 23 45 57 31 45
internal_value=-0.000656075 0.0632634 0.127773 -0.0401615 0.0697256 0.032907 0.127766 -0.0575142 0.0568344 0.214733 0.138416 -0.074027 0.00503815 -0.077056 -0.0597036 -0.0886997 -0.0493761 -0.0991571 -0.0967489 -0.0962106 -0.0965066 -0.0961484 -0.096363 -0.0964631 -0.0960745 -0.0962466 -0.0960441 -0.0960867 -0.0963533 -0.096431
internal_weight=67.2711 31.669 19.5039 12.1652 11.6964 9.73027 4.80679 35.6021 4.49247 7.80749 4.53616 31.1096 4.86955 10.1343 4.92347 26.2401 4.20819 3.19688 8.77589 22.0319 7.34571 19.8625 5.08228 2.7223 14.7802 2.74667 13.7097 11.2942 5.95573 4.49532
internal_count=966 381 197 184 130 112 51 585 58 67 42 527 73 164 61 454 67 44 143 387 123 352 87 46 265 48 247 202 102 76
is_linear=0
shrinkage=0.1


Tree=23
num_leaves=31
num_cat=0
split_feature=17 15 8 11 11 14 3 3 8 16 11 13 0 13 6 6 0 12 11 16 17 1 9 14 11 10 7 15 2 7
split_gain=14.3276 13.9728 7.01615 4.91531 6.32506 6.00393 5.8806 9.67321 6.50506 4.26622 4.62247 3.95008 3.18214 2.97851 5.83971 1.99301 1.79127 3.2625 1.51457 0.96565 1.58472 0.438573 0.00102608 0.00020334 9.70559e-05 4.89286e-05 4.25051e-05 2.45573e-05 1.87428e-05 1.59756e-05
threshold=-0.40054067916100572 -1.5354597976369966 -0.80287005354004737 -0.70535904671176397 -1.9561017658861632 -0.39120679577630985 1.0000000180025095e-35 0.45083429973155759 0.5793383119009764 1.6659637210653202 1.6571549783954349 -0.61166526685028322 0.64596456485445819 -0.64587687288220808 0.69173623744643675 0.72981523687194494 0.96083426247974735 0.35970708343437113 0.54538367246263542 -1.1176405986390769 -0.40875820695264914 0.78745217711908511 1.0000000180025095e-35 -0.15080872661605835 0.12846943273783562 0.047726862499560922 -1.1182834002009094 0.95967582641964644 -0.8802842837520316 1.6846791441532125
decision_type=2 2 2 2 2 2 2 2 2 2 2 2 2 2 2 2 2 2 2 2 2 2 2 2 2 2 2 2 2 2
left_child=1 -1 -3 4 -2 -6 12 11 18 10 16 -8 13 14 -5 -14 19 -18 23 20 -4 22 -15 -9 -24 26 -21 29 -27 -28
right_child=3 2 9 6 5 -7 7 8 -10 -11 -12 -13 15 21 -16 -17 17 -19 -20 25 -22 -23 24 -25 -26 28 27 -29 -30 -31
leaf_value=0.19992809052345709 -0.01400339587790396 0.0899822196222161 -0.09770743580005109 0.14512734888608392 0.31190941227726188 0.08749812875732603 0.3147139266185171 -0.098982605953271921 0.14819439573420995 0.097603371099950931 0.096555303857722569 0.11128593439456867 -0.0077948599382547772 -0.10097981593838652 -0.099286015031161329 0.12697961340334779 -0.096780431730600455 0.093493203449052986 0.021792708592078186 -0.097546015577256326 0.038986607629102187 -0.03985836708259656 -0.098551138379713479 -0.0973108543228762 -0.09738528008474473 -0.097021103102531245 -0.097026408741268791 -0.096578851935821566 -0.096630183949320075 -0.096722953666641423
leaf_weight=2.3089715242385855 2.2700866013765335 3.1363177001476279 2.0336442664265633 2.0223284587264048 2.1672853529453278 2.6498190686106673 1.9189509600400927 1.4424240738153455 2.4162349924445152 1.5234148949384678 1.5266273394227017 1.8992292582988719 2.188054282218217 1.8951769620180163 1.8922159969806669 2.200858511030674 2.1209462508559223 1.566872540861368 1.6498684510588644 1.1802784353494633 1.4548346698284107 1.6896262019872663 1.4548208341002467 1.468114033341408 1.4023533165454862 1.4279596954584111 9.8373502418398946 1.8230141401290882 8.6924140974879247 2.1063464358448973
leaf_count=20 22 31 29 20 20 29 19 18 29 18 17 24 27 20 23 25 34 22 20 17 19 21 19 22 21 22 152 30 142 34
internal_value=0.000550318 -0.0389976 -0.0533529 0.0499303 0.123612 0.188464 0.0294843 0.0855658 0.015536 -0.0660901 -0.0734745 0.213525 -0.0115717 -0.0418131 0.0269826 0.059789 -0.0815249 -0.0159374 -0.0547502 -0.0899951 -0.0407006 -0.0836177 -0.0991756 -0.0981394 -0.0979789 -0.0968551 -0.0969701 -0.0969207 -0.0966853 -0.0969729
internal_weight=73.3664 40.739 38.43 32.6274 7.08719 4.8171 25.5403 10.7948 6.97664 35.2937 33.7703 3.81818 14.7454 10.3565 3.91454 4.38891 32.2437 3.68782 4.56041 28.5558 3.48848 6.44198 4.75235 2.91054 2.85717 25.0674 14.947 13.7667 10.1204 11.9437
internal_count=966 587 567 379 71 49 308 132 89 536 518 43 176 124 43 52 501 56 60 445 48 81 60 40 40 397 233 216 164 186
is_linear=0
shrinkage=0.1


Tree=24
num_leaves=31
num_cat=0
split_feature=8 12 14 0 15 15 7 7 0 15 13 10 11 4 12 12 5 6 7 0 10 0 17 1 7 1 13 3 4 11
split_gain=159.305 49.9381 20.1927 14.1245 10.6358 8.59938 7.67031 6.40577 7.42551 4.64108 3.66627 5.09449 3.56629 3.05203 2.75641 2.59484 1.86785 1.9112 1.14047 1.07656 0.991408 0.960279 2.1238 0.855614 0.762559 0.491262 0.462296 0.0475276 0.0148486 0.00765877
threshold=1.0000000180025095e-35 -0.92843765279399837 -0.39120679577630985 -0.1587024401879476 -0.39185596994436861 0.3358919204054856 1.0000000180025095e-35 0.84379038084697577 0.4010659111458999 0.12796395173409866 0.18090360622264173 0.047726862499560922 0.40641225922103552 -0.24085328305400852 0.75330686394859525 0.9679976533199901 -0.76530239446755599 0.82674359904596562 1.6846791441532125 0.261123823312438 0.15582568823127518 0.33109486722916898 -0.40875820695264914 1.0000000180025095e-35 -0.55769089133008509 -0.15796020555185186 -0.5432420547864335 -1.0000000180025095e-35 -0.10374999994842643 -0.28844480698696418
decision_type=2 2 2 2 2 2 2 2 2 2 2 2 2 2 2 2 2 2 2 2 2 2 2 2 2 2 2 2 2 2
left_child=4 25 3 15 18 -5 16 10 20 14 21 -12 23 -7 -8 -3 -6 -18 19 -1 -9 24 -23 -13 27 -2 29 28 -4 -19
right_child=1 2 7 5 6 13 9 8 -10 -11 11 12 -14 -15 -16 -17 17 26 -20 -21 -22 22 -24 -25 -26 -27 -28 -29 -30 -31
leaf_value=-0.12812409384021137 -0.12974167226547975 0.063565334990777225 0.16723632866908514 -0.098216164024404418 -0.031732305882460315 0.074518067593810633 -0.013134936674063766 0.14821866298079978 -0.0091179741059970541 -0.070674773001180663 0.048338321443685633 0.13114353202074799 0.069415216294395288 -0.016401883917211195 0.090455236851224752 0.15337616563013926 -0.045434151825058187 -0.12917656733411798 -0.083716379829314708 -0.085792793051384333 0.090020169822348214 0.17044269887569241 0.084190396510748833 0.18049072447191772 0.13142342413419958 -0.089171387559922211 -0.095043333676421121 0.18123377678882024 0.17376158513625897 -0.13483279695684228
leaf_weight=48.782368406653404 8.2699902951717359 5.9257833659648878 7.095623105764389 8.4795152842998522 4.7989206016063717 7.2354310452938062 4.8587456196546572 5.4697242379188555 7.723873943090438 5.7225548624992362 10.06339865922928 5.746422708034518 5.9099274873733512 7.5390850007534027 5.4497829079627991 7.0376188158988953 4.645918324589732 4.7796642184257534 8.5672294348478299 6.8515833318233481 6.2965459227561951 6.0150610208511353 5.4335707128047925 9.042672932147978 5.4772458970546749 4.6701566576957694 5.2313012182712511 5.7698652148246774 6.857691615819931 4.7959450185298911
leaf_count=216 36 22 26 36 20 27 20 20 29 23 38 21 22 29 21 26 20 21 37 30 23 22 20 33 20 20 22 21 25 20
internal_value=0.000458015 0.0717727 0.0914135 0.0286814 -0.0924081 -0.0179457 -0.0521297 0.117558 0.0670649 0.00154087 0.132157 0.106702 0.135077 0.0281238 0.0416298 0.112322 -0.0876075 -0.101392 -0.117681 -0.122911 0.117075 0.153523 0.129507 0.161316 0.164433 -0.1151 -0.118949 0.1736 0.170443 -0.132009
internal_weight=240.543 136.059 123.119 36.2174 104.484 23.254 40.2828 86.9016 19.4901 16.0311 67.4115 30.7624 20.699 14.7745 10.3085 12.9634 24.2517 19.4528 64.2012 55.634 11.7663 36.6491 11.4486 14.7891 25.2004 12.9401 14.8069 19.7232 13.9533 9.57561
internal_count=966 516 460 140 450 92 167 320 72 64 248 114 76 56 41 48 103 83 283 246 43 134 42 54 92 56 63 72 51 41
is_linear=0
shrinkage=0.1


Tree=25
num_leaves=31
num_cat=0
split_feature=15 0 8 14 0 3 13 14 10 7 1 11 14 10 8 12 0 14 15 0 3 15 0 12 7 10 5 2 16 6
split_gain=1.37989 0.000581755 1.26291e-10 1.3284e-10 6.84683e-11 5.9973e-11 3.96576e-11 3.10898e-11 3.09278e-11 3.04921e-11 2.74754e-11 2.5116e-11 3.56023e-11 5.00724e-11 2.37276e-11 2.31422e-11 2.29764e-11 2.95272e-11 1.87325e-11 1.72615e-11 1.70394e-11 1.84637e-11 1.88398e-11 1.20121e-11 1.11811e-11 7.58489e-12 7.54045e-12 7.09607e-12 6.70539e-12 7.82783e-12
threshold=1.4794957480981139 2.1153564871058079 0.1953915437229142 -0.39120679577630985 -0.2286734841046785 0.84198387179971268 1.8287626300936874 -0.15080872661605835 0.80441864262156082 1.6846791441532125 1.7328645597900223 -0.42741622022856413 -0.15080872661605835 -1.3575578720127242 -0.80287005354004737 0.35970708343437113 0.4010659111458999 -0.63160486493656121 0.3358919204054856 0.051210691562245177 -0.87907424530016953 1.1676037950910334 -0.50855765977160217 -0.46327427582264274 1.0000000180025095e-35 1.5070610098777035 1.0000000180025095e-35 1.0000000180025095e-35 -0.322325078723535 -1.3922235492950084
decision_type=2 2 2 2 2 2 2 2 2 2 2 2 2 2 2 2 2 2 2 2 2 2 2 2 2 2 2 2 2 2
left_child=1 2 5 4 18 6 8 15 9 11 20 28 14 -14 -13 -7 17 -6 -4 24 -5 22 -22 -24 -15 -10 -23 -16 -1 -30
right_child=-2 -3 3 10 16 7 -8 -9 25 -11 -12 12 13 19 27 -17 -18 -19 -20 -21 21 26 23 -25 -26 -27 -28 -29 29 -31
leaf_value=-0.090986577313452097 0.097348806526756496 -0.095028883907295858 -0.090982005507834085 -0.090981002398255947 -0.090988110635111724 -0.090980724004479929 -0.090983536668428636 -0.090987183246257167 -0.090984412667659165 -0.090985496362912102 -0.09098671996207025 -0.090985638917454925 -0.090986625917045441 -0.090991750489715195 -0.090990522342894564 -0.090985284709142397 -0.090986437490354441 -0.090992512447374996 -0.090986100882952031 -0.090990183921642057 -0.090986848817795105 -0.090983158895486901 -0.090981212926984578 -0.090984046593704598 -0.090994990336033393 -0.09098708186763721 -0.090981002708324321 -0.090987990256157433 -0.090986838797633307 -0.090989609647265976
leaf_weight=0.044844740012194961 0.51886021718382846 0.63413713872432709 0.024635649111587554 0.03644183580763638 0.044826777651906013 0.022459172701928765 0.02062623982783407 0.029181223246268928 0.02452315972186625 0.031264729390386492 0.02154278225498274 0.028602138219866902 0.021509830025024601 0.020909002574626467 0.023536533932201453 0.022048796236049384 0.034483507100958377 0.02308796183206141 0.020431843469850719 0.027398659789469093 0.020634141808841377 0.030415413784794509 0.01828091440256685 0.082342186069581658 0.021714842645451427 0.018813255010172725 0.034748701611533761 0.020891974796541035 0.018748841132037342 0.022349162318277993
leaf_count=48 76 14 28 42 47 26 23 31 27 34 23 31 23 21 24 24 37 23 22 28 22 34 21 91 21 20 40 22 20 23
internal_value=-0.0425433 -0.0927597 -0.090986 -0.0909847 -0.0909871 -0.0909872 -0.0909878 -0.0909846 -0.0909881 -0.0909884 -0.0909833 -0.0909888 -0.0909895 -0.0909908 -0.0909879 -0.090983 -0.0909885 -0.0909896 -0.0909839 -0.0909921 -0.090983 -0.0909834 -0.0909841 -0.0909835 -0.0909934 -0.0909856 -0.090982 -0.0909893 -0.0909874 -0.0909883
internal_weight=1.96429 1.44543 0.811294 0.391872 0.147466 0.419422 0.345733 0.0736892 0.325107 0.28177 0.244406 0.250506 0.164563 0.0915323 0.0730306 0.044508 0.102398 0.0679147 0.0450675 0.0700225 0.222863 0.186421 0.121257 0.100623 0.0426238 0.0433364 0.0651641 0.0444285 0.0859427 0.041098
internal_count=966 890 876 430 157 446 365 81 342 295 273 261 170 93 77 50 107 70 50 70 250 208 134 112 42 47 74 46 91 43
is_linear=0
shrinkage=0.1


Tree=26
num_leaves=31
num_cat=0
split_feature=11 16 0 1 4 8 0 4 6 11 8 14 0 10 13 0 14 13 3 11 14 10 7 16 7 13 8 8 0 6
split_gain=5.89429 5.58987 3.6182 2.25849 3.76441 0.000513314 0.00030495 0.000186702 2.65074e-05 3.04256e-08 3.03307e-08 2.17833e-08 1.40389e-08 9.19682e-09 1.04054e-08 9.15287e-09 8.58618e-09 8.2402e-09 7.57877e-09 7.30387e-09 7.14227e-09 6.40037e-09 6.36427e-09 5.8307e-09 5.57589e-09 5.17235e-09 4.55584e-09 4.11685e-09 3.8167e-09 3.63131e-09
threshold=-1.2612446996781637 -1.0000000180025095e-35 2.3602551408143664 -0.9142901116886013 0.99307626489623035 0.88649572644342622 2.1153564871058079 1.8156959635297227 0.98425218757874933 -1.9561017658861632 0.1953915437229142 -0.39120679577630985 -0.36861557193814037 0.80441864262156082 1.8287626300936874 0.4010659111458999 -0.39120679577630985 -0.70289621626874943 -0.3314648444047526 0.96229791218743532 -0.63160486493656121 -1.1954096334151527 -0.55769089133008509 1.0000000180025095e-35 1.4043828897178003 -0.41209756499738842 0.7713116959900076 -0.72608069990443502 -0.36861557193814037 0.70039055549768869
decision_type=2 2 2 2 2 2 2 2 2 2 2 2 2 2 2 2 2 2 2 2 2 2 2 2 2 2 2 2 2 2
left_child=1 5 -3 4 8 9 7 10 22 -1 13 12 -12 14 16 20 27 23 21 26 -14 -19 25 -18 -20 -2 29 -5 -21 -13
right_child=3 2 -4 6 -6 -7 -8 -9 -10 -11 11 19 15 -15 -16 -17 17 18 24 28 -22 -23 -24 -25 -26 -27 -28 -29 -30 -31
leaf_value=-0.091367164370715626 -0.09137919992225696 0.10715885070614424 0.48599726699100887 -0.091357985524706586 0.24675956958674058 -0.097487148922720701 -0.094306161684463943 -0.093725789595831457 -0.09302003856683401 -0.091436270251137097 -0.091351893674287241 -0.09134124479297516 -0.091384220640182784 -0.091363913579644088 -0.091354835524837488 -0.091368304180812418 -0.091389464639058213 -0.091378553481058541 -0.091383222727189212 -0.091384664755121262 -0.091416844987829038 -0.091403021822018954 -0.09138217775831986 -0.091417315731674206 -0.091358027213948062 -0.091353524144202572 -0.091360047817545489 -0.091380967084382592 -0.091359033457730554 -0.091356253581363192
leaf_weight=0.1314502372406422 0.11807108996436 0.4961660872213538 0.51252628862857819 0.13426022138446569 0.58219317905604839 0.30334510654211044 0.45492192730307568 0.36950897378846992 0.11501099448651075 0.12363046454265736 0.13772897236049175 0.3934078165329995 0.14211183879524469 0.2825523642823099 0.11721475096419443 0.14276816649362445 0.14356503775343266 0.17397074261680212 0.25494072679430335 0.11955388588830829 0.12713921302929465 0.27731229737401009 0.28831271408125736 0.15777957392856479 0.13400334818288684 0.23385872971266508 0.4965672641992569 0.18584553664550174 0.11301408242434252 0.27311347099021077
leaf_count=24 21 40 6 25 16 5 12 27 10 20 26 76 25 52 22 26 25 31 45 21 21 47 51 26 25 44 92 33 21 51
internal_value=-0.0134742 0.159125 0.29965 -0.0587911 0.055676 -0.0947069 -0.0918475 -0.0915797 -0.0916223 -0.0914007 -0.0913714 -0.0913627 -0.0913795 -0.0913805 -0.0913835 -0.0913888 -0.0913858 -0.0913899 -0.0913848 -0.091356 -0.0913996 -0.0913936 -0.0913712 -0.091404 -0.0913745 -0.0913621 -0.0913528 -0.0913713 -0.0913722 -0.0913474
internal_weight=7.53585 1.56712 1.00869 5.96873 1.33745 0.558426 4.63128 4.17636 0.755254 0.255081 3.80685 1.9454 0.549748 1.86144 1.57889 0.412019 1.46168 1.14157 0.840227 1.39566 0.269251 0.451283 0.640243 0.301345 0.388944 0.35193 1.16309 0.320106 0.232568 0.666521
internal_count=966 95 46 871 142 49 729 717 126 44 690 359 98 331 279 72 257 199 148 261 46 78 116 51 70 65 219 58 42 127
is_linear=0
shrinkage=0.1


Tree=27
num_leaves=31
num_cat=0
split_feature=6 3 10 4 13 12 15 12 6 17 3 8 4 15 3 4 13 3 3 4 10 15 6 10 14 12 1 0 5 9
split_gain=16.2872 12.385 5.5238 7.78616 5.5879 2.59362 6.20458 2.18897 2.23362 0.000469567 0.000199727 0.000157256 6.39491e-05 4.78546e-05 2.41009e-05 5.71867e-05 6.27596e-06 6.00226e-06 2.0759e-06 3.70625e-06 1.40301e-06 5.38625e-07 2.85243e-07 2.83526e-07 2.76329e-07 2.42814e-07 1.90282e-07 1.88213e-07 1.45179e-07 1.28332e-07
threshold=0.85270655319972122 -0.3314648444047526 -1.3035084591468671 1.2672828311073945 -0.5432420547864335 -1.1431284421653933 0.12796395173409866 2.2382514904340769 -1.4406877303820187 1.0000000180025095e-35 -1.1137639885410624 -1.954710358074234 0.71886969868506612 1.6874237167695008 -1.1137639885410624 0.58176641557948405 0.5743370755897772 -0.3314648444047526 -0.87907424530016953 0.58176641557948405 0.91251746835327507 1.1676037950910334 0.66058069246193007 -0.22252020182972471 -0.39120679577630985 0.789088662177161 -0.53612515862022658 -0.1587024401879476 -1.341740689247797 1.0000000180025095e-35
decision_type=2 2 2 2 2 2 2 2 2 2 2 2 2 2 2 2 2 2 2 2 2 2 2 2 2 2 2 2 2 2
left_child=2 -2 3 4 -1 6 17 8 -7 13 -11 -12 16 14 15 22 -6 -4 19 -16 -3 23 -10 25 27 28 -23 -25 -20 -26
right_child=1 20 5 -5 12 7 -8 -9 9 10 11 -13 -14 -15 18 -17 -18 -19 21 -21 -22 26 -24 24 29 -27 -28 -29 -30 -31
leaf_value=0.28263378257361144 0.39870335819753611 -0.093027376105695406 -0.09299404563711991 0.41383386923719706 -0.092442660396515178 0.13890827117403021 0.39121053146763474 0.1501958772918992 -0.092260420374300434 -0.095804680274677201 -0.094833090953957894 -0.09232023372688633 -0.094072305697258385 -0.093437774060204704 -0.092223952077173987 -0.093688783987389807 -0.092943650748404494 -0.092425700645514794 -0.092202045454185061 -0.092637615189074429 -0.092753984236269113 -0.092236848390075829 -0.092134865234573843 -0.092199161801116689 -0.092215433874199934 -0.092340972122640183 -0.092159646930941808 -0.092274605812485838 -0.092271631713851873 -0.092164397741760204
leaf_weight=0.53064139001071531 1.6114253532141449 0.36464458331465621 0.38088240101933479 0.59026031009852875 0.44444006495178345 0.432029177434745 0.41155700385570526 0.41094677522778589 0.37891053035855005 0.52000281214714039 0.43531507998704899 0.58200160134583789 0.53866786696016777 0.3802705807611354 0.57004711776971539 0.4008648656308651 0.5716812377795577 0.36283245123923069 0.4242629725486039 0.34931415971368551 0.38685380853712559 0.40548425540328015 0.34633231535553932 0.4542838018387555 1.7955932030454254 0.38078935910016287 1.5014258800074456 1.2152694491669498 1.0221505193039737 0.67901039868593205
leaf_count=17 26 19 19 16 26 25 14 16 24 10 10 36 18 15 37 15 26 21 28 18 22 26 24 30 117 23 102 76 64 46
internal_value=-0.0032024 0.242359 -0.0383362 0.0931923 0.00243791 -0.0637654 0.0796787 -0.0768301 -0.0844316 -0.0925801 -0.0942104 -0.0933955 -0.0931915 -0.0923369 -0.0922947 -0.0927303 -0.0927245 -0.0927168 -0.0922389 -0.0923811 -0.0928866 -0.0922223 -0.0922005 -0.0922371 -0.0922226 -0.0922699 -0.0921761 -0.0922541 -0.0922512 -0.0922014
internal_weight=18.8782 2.36292 16.5153 2.67569 2.08543 13.8396 1.15527 12.6843 12.2734 11.8413 1.53732 1.01732 1.55479 10.304 9.92374 1.12611 1.01612 0.743715 8.79763 0.919361 0.751498 7.87827 0.725243 5.97136 4.14416 1.8272 1.90691 1.66955 1.44641 2.4746
internal_count=966 67 899 103 87 796 54 742 726 701 56 46 70 645 630 63 52 40 567 55 41 512 48 384 269 115 128 106 92 163
is_linear=0
shrinkage=0.1


Tree=28
num_leaves=31
num_cat=0
split_feature=14 4 8 12 12 11 11 6 15 8 14 0 0 14 13 16 1 11 1 3 0 15 10 12 0 13 2 17 15 0
split_gain=2.96787 3.8884 4.0853 2.12839e-05 1.21253e-05 1.12928e-05 1.18592e-06 5.32157e-07 1.11623e-07 1.60368e-09 5.6029e-10 4.49235e-10 4.66566e-10 3.57783e-10 3.62251e-10 3.34964e-10 3.09534e-10 2.61892e-10 2.18248e-10 1.7604e-10 1.62414e-10 1.58477e-10 1.54749e-10 1.52812e-10 1.35449e-10 1.21397e-10 1.2056e-10 1.08917e-10 1.00358e-10 8.69039e-11
threshold=-0.63160486493656121 0.85597298179064818 1.0784691105324573 -1.4293828279939198 -1.3757101306510708 -2.095073179127763 -2.095073179127763 0.63288687469792426 0.12796395173409866 1.0000000180025095e-35 -0.39120679577630985 -0.36861557193814037 0.4010659111458999 -0.39120679577630985 0.13528813151340863 -0.71998283868130597 1.7328645597900223 -0.42741622022856413 0.97653465365327252 -0.87907424530016953 0.051210691562245177 0.75174785774825958 0.26392451396298949 -0.42749247759407694 -0.4385866158548713 -0.42920336801335085 1.0000000180025095e-35 -0.40054067916100572 -0.079964016937288288 -0.29864452802140945
decision_type=2 2 2 2 2 2 2 2 2 2 2 2 2 2 2 2 2 2 2 2 2 2 2 2 2 2 2 2 2 2
left_child=1 2 3 -1 -2 -5 -6 -7 -9 13 11 -11 -13 20 15 -15 18 -17 19 -12 27 24 25 -16 -21 -19 -25 -8 -26 -28
right_child=4 -3 -4 5 6 7 9 8 -10 10 16 12 -14 14 23 17 -18 22 -20 21 -22 -23 -24 26 28 -27 29 -29 -30 -31
leaf_value=-0.093048630821665756 -0.092103947158909849 0.61684065432715507 0.45382723222191734 -0.092395257316694512 -0.091421648816389409 -0.091428316030354617 -0.091067965045993765 -0.091252349248975365 -0.091064213981026196 -0.091056785563057407 -0.091053005333743053 -0.09107461772128711 -0.09106151786758461 -0.091063353363116245 -0.091068020090581167 -0.09106581341542308 -0.091065014508523653 -0.091078452274216778 -0.091050099401017826 -0.091065670755514028 -0.091057396639239979 -0.091056628239267953 -0.091067379389107098 -0.091065714845579404 -0.091054411079818875 -0.091072244189517357 -0.091057551049863919 -0.091060887524514939 -0.091060501874449917 -0.091063633022635079
leaf_weight=0.15828795917332172 0.12625047471374284 0.14104843628592789 0.18241215730085969 0.1402640319429338 0.097975488286465517 0.12094436981715295 0.040137230069376528 0.0519202402792871 0.080327444244176149 0.05336220224853605 0.072813048027455696 0.053719420451670774 0.055049570510163903 0.07785698096267879 0.061005677212961018 0.071653520571999252 0.052593258791603148 0.050966267823241651 0.042478976305574179 0.039610737701877952 0.060586699401028454 0.24544335925020278 0.037962755188345909 0.05842708027921617 0.035047225072048604 0.082463526981882085 0.058928405400365591 0.047447942662984133 0.1185908865882086 0.03907014848664403
leaf_count=9 9 20 21 11 16 28 21 18 43 30 42 27 30 42 32 38 28 25 25 21 34 138 20 31 20 42 33 26 65 21
internal_value=-0.0133526 0.135956 0.0435668 -0.0920694 -0.0911615 -0.0916755 -0.0910849 -0.0912767 -0.0911381 -0.0910622 -0.0910591 -0.0910643 -0.091068 -0.0910657 -0.0910669 -0.0910691 -0.0910577 -0.0910709 -0.091057 -0.0910576 -0.0910614 -0.0910583 -0.091073 -0.0910638 -0.0910605 -0.0910746 -0.0910621 -0.0910641 -0.0910591 -0.09106
internal_weight=2.55465 0.875205 0.734156 0.551744 1.67944 0.393456 1.55319 0.253192 0.132248 1.45521 0.768709 0.162131 0.108769 0.686506 0.538334 0.320903 0.606577 0.243046 0.553984 0.511505 0.148172 0.438692 0.171393 0.217431 0.193249 0.13343 0.156426 0.0875852 0.153638 0.0979986
internal_count=966 150 130 109 816 100 807 89 61 791 426 87 57 365 284 167 339 125 311 286 81 244 87 117 106 67 85 47 85 54
is_linear=0
shrinkage=0.1


Tree=29
num_leaves=31
num_cat=0
split_feature=15 17 12 3 13 11 8 4 10 14 7 2 2 10 5 4 1 11 13 0 15 15 8 0 4 11 14 10 4 11
split_gain=14.4053 8.64633 7.21228 5.55307 4.67346 6.65317 9.47341 5.48318 5.31127 4.44004 3.51499 2.70498 6.17179 2.47696 2.05297 1.75972 1.23219 1.544 0.447991 0.423619 0.00052439 0.000437978 0.000203712 0.000126587 7.65889e-05 5.68135e-05 4.75776e-05 3.98397e-05 1.34456e-05 1.36851e-05
threshold=-1.4314958133013029 -0.40054067916100572 -1.2504738368510908 1.6242830159360229 -1.1020316199745388 -0.56638763347016396 -0.64929134626882246 1.0000000180025095e-35 0.53417157829227524 3.4551623107877152 1.0000000180025095e-35 -1.0748289229889252 -1.6584628406996067 -1.0873108076834386 -1.341740689247797 -1.8860926803209932 -0.725207635154414 0.12846943273783562 -0.32656854991757639 -1.0000000180025095e-35 -1.0156398759585292 -1.1196038602942229 0.50254895826536405 0.89086321856301642 0.30755984936831987 0.68435508570423542 -0.39120679577630985 0.31797392682884656 -1.2005762647930829 0.96229791218743532
decision_type=2 2 2 2 2 2 2 2 2 2 2 2 2 2 2 2 2 2 2 2 2 2 2 2 2 2 2 2 2 2
left_child=1 13 -2 4 7 6 -6 -4 18 11 -9 12 19 -1 -13 -16 17 -17 -8 -7 -20 -18 23 24 27 -19 -24 -23 -28 -30
right_child=2 -3 3 -5 5 9 8 10 -10 -11 -12 14 -14 -15 15 16 21 25 20 -21 -22 22 26 -25 -26 -27 28 -29 29 -31
leaf_value=-0.053892773865302307 0.12406103063231254 0.2256515856484238 0.14104173183230953 0.11665630263515375 0.1876022814595974 -0.098043666733519705 -0.035569284230581998 -0.098188994167007465 0.077165440169860794 0.077518001397726868 0.065328412890765408 0.039628958160984482 0.17518828802751268 0.10228959613666476 0.014739226825938617 0.0053091975527776881 -0.098618057505975854 -0.098466469642366897 -0.099255866190351705 -0.027315872874285253 -0.097005351821629893 -0.097039835136795538 -0.097463979728544148 -0.098336562599133148 -0.097897346608207231 -0.097578668867972077 -0.096683095245374565 -0.09757359716521645 -0.096913869037397779 -0.097249408880252686
leaf_weight=2.1115231290459633 3.5566478967666617 4.2099531888961774 3.302435986697672 2.7552231326699248 2.7849826216697684 2.1011864319443703 1.5814411193132389 2.8648266419768333 3.3521751873195171 2.2594169750809661 2.4294178187847137 1.4476512372493662 1.4571084827184595 1.9561741277575491 1.7732140272855641 2.9011648297309796 2.9469081163406328 1.4329745694994929 1.8256597444415081 1.4185293540358546 2.3917592391371656 3.4411685876548805 1.9833660125732357 2.0580890476703635 2.7524451613426208 1.4503679648041723 1.852300655096762 2.3555903919041157 5.7493410520255672 1.5413842648267744
leaf_count=22 37 33 34 28 33 29 20 39 33 26 30 19 18 19 25 40 38 19 22 20 37 53 29 27 38 21 30 34 90 23
internal_value=0.000657877 0.12519 -0.0145537 -0.0222316 -0.0284584 -0.0395796 0.0261117 0.039922 -0.0230356 -0.0587402 -0.0231543 -0.066703 0.00211218 0.021216 -0.0768698 -0.0821012 -0.0877377 -0.0461962 -0.0809593 -0.0695387 -0.0979796 -0.097474 -0.0973189 -0.0976325 -0.097463 -0.0980199 -0.09702 -0.0972567 -0.0969237 -0.0969848
internal_weight=76.0444 8.27765 67.7668 64.2101 61.4549 52.8582 11.936 8.59668 9.15104 40.9222 5.29424 38.6628 4.97682 4.0677 33.686 32.2383 30.4651 5.78451 5.79886 3.51972 4.21742 24.6806 21.7337 10.6073 8.5492 2.88334 11.1264 5.79676 9.14303 7.29073
internal_count=966 74 892 855 827 724 145 103 112 579 69 553 67 41 486 467 442 80 79 49 59 362 324 152 125 40 172 87 143 113
is_linear=0
shrinkage=0.1


Tree=30
num_leaves=31
num_cat=0
split_feature=8 11 12 15 10 15 11 10 15 13 15 13 6 12 11 3 10 13 8 0 8 14 12 6 7 16 14 8 10 4
split_gain=12.4896 16.7816 7.3457 7.14439 5.37163 4.82854 3.70032 5.32351 5.40425 3.68721 3.46182 3.20886 0.44917 1.02081 0.00178419 0.000952257 7.70254e-05 4.02756e-05 9.06396e-06 6.13211e-06 5.3298e-06 3.64385e-06 2.70974e-06 6.40346e-06 2.69146e-06 1.14726e-06 9.37388e-07 7.42271e-07 6.66337e-07 6.58172e-07
threshold=0.7713116959900076 -1.5391875261613632 0.35970708343437113 0.23192793606979212 0.91251746835327507 1.4794957480981139 0.68435508570423542 0.20987510109713231 -0.18392800127298173 -1.2160703067476215 -0.28789198560867518 -0.18972212578987716 0.83712878070746777 -0.78531045987973502 1.9350978048786349 0.45083429973155759 0.80441864262156082 -0.18972212578987716 1.0000000180025095e-35 0.64596456485445819 -1.8779210044386214 -0.39120679577630985 0.39548888166293689 -1.423379094279515 1.0000000180025095e-35 -1.1176405986390769 -0.39120679577630985 -0.64929134626882246 -0.5468166790248673 0.44466313247390193
decision_type=2 2 2 2 2 2 2 2 2 2 2 2 2 2 2 2 2 2 2 2 2 2 2 2 2 2 2 2 2 2
left_child=6 -2 3 4 -3 15 9 17 -9 10 -1 -10 18 19 26 16 -5 24 20 -14 -11 -20 25 -24 -8 -22 -4 -25 29 -27
right_child=1 2 14 5 -6 -7 7 8 11 12 -12 -13 13 -15 -16 -17 -18 -19 21 -21 22 -23 23 27 -26 28 -28 -29 -30 -31
leaf_value=0.17506151613781962 0.45960538603164952 0.26598575177901712 -0.093377597618491071 -0.093309865780795836 0.00033442060488303406 0.12285236298109373 -0.093388279243538944 0.30598544426514696 -0.0936811730176869 -0.093728014922030672 -0.094042789314008043 0.17798305647200374 -0.093854319597490674 0.061032102389190802 -0.099328062910558013 -0.098254362115933414 -0.094745467153853985 -0.094492581977707088 -0.093405445745308194 -0.093413158221862302 -0.093256738017596486 -0.093220491961836793 -0.093738919588306796 -0.093293782055115515 -0.09367019020723219 -0.093321462105574904 -0.093246969133264662 -0.093443916452528017 -0.09347661356953807 -0.093411671649360914
leaf_weight=1.1132251713424919 1.0612906515598286 2.7236984763294445 0.98929704912006911 0.85216132365167163 1.0563928131014106 1.8194050341844556 0.62013400159776233 0.99518940411508117 1.078897163271904 0.60462520085275162 0.83780910633504646 0.72830178961157765 0.66216614283621289 0.64428318850695987 0.63143317587673653 0.77140474691987027 0.66569511219859123 0.66201971098780532 1.4841994829475877 0.60108901001513004 0.67242440767586309 3.7732926700264215 0.79002932086586986 0.57052272185683262 0.74612700380384922 1.2982073277235033 1.2352741099894047 0.77888059988617864 0.8481674864888199 2.145344614982605
leaf_count=30 8 38 35 31 29 31 22 22 35 19 25 12 20 18 13 11 16 17 52 21 25 142 25 21 24 47 46 27 29 75
internal_value=-0.00249199 0.080251 0.0427811 0.0925312 0.191746 0.00125045 -0.0476027 0.029542 0.118851 -0.0697528 0.0595033 0.0157996 -0.0867083 -0.0414014 -0.0946367 -0.0953935 -0.0939395 -0.0938524 -0.0933739 -0.0936444 -0.093443 -0.0932727 -0.0934187 -0.0935128 -0.0935422 -0.0933782 -0.0933051 -0.0933804 -0.0933972 -0.0933777
internal_weight=33.461 11.8061 10.7448 7.88876 3.78009 4.10867 21.6549 4.83067 2.80239 16.8243 1.95103 1.8072 14.8732 1.90754 2.856 2.28926 1.51786 2.02828 12.9657 1.26326 7.7082 5.25749 7.10358 2.13943 1.36626 4.96414 2.22457 1.3494 4.29172 3.44355
internal_count=966 258 250 156 67 89 708 132 69 576 55 47 521 59 94 58 47 63 462 41 268 194 249 73 46 176 81 48 151 122
is_linear=0
shrinkage=0.1


Tree=31
num_leaves=31
num_cat=0
split_feature=8 10 14 3 15 7 12 0 17 3 5 5 1 6 15 3 10 13 5 16 4 14 1 1 3 15 13 14 13 12
split_gain=68.6389 46.9092 11.2552 9.31464 10.2942 8.94879 6.30869 9.9043 8.70408 8.22068 5.03057 4.52339 4.4021 8.74518 4.29013 4.08002 8.60582 3.41249 3.32829 2.20575 2.19262 2.11148 1.42173 1.47703 0.970549 2.03155 0.596169 0.391267 1.28512 0.00543611
threshold=1.0000000180025095e-35 0.85846805548741789 -0.63160486493656121 -0.87907424530016953 0.12796395173409866 -0.55769089133008509 0.43127067989150275 1.0000000180025095e-35 -0.39232315136936224 -0.3314648444047526 -0.47708324707743538 -0.47708324707743538 -1.2924550647569759 -1.3818383676335062 0.23192793606979212 1.0000000180025095e-35 0.85846805548741789 0.44889452013938619 -0.18886409968731482 -0.322325078723535 -1.6118861141098291 -0.15080872661605835 -0.34704268208603922 0.59836970058489769 -0.87907424530016953 -0.18392800127298173 2.0625419379785073 -0.15080872661605835 0.27213455564110794 -0.35592888113694526
decision_type=2 2 2 2 2 2 2 2 2 2 2 2 2 2 2 2 2 2 2 2 2 2 2 2 2 2 2 2 2 2
left_child=6 2 14 -3 -5 -6 8 10 12 11 -8 -10 -1 18 -2 -11 -17 -15 22 -13 -4 -12 -14 -24 25 -22 27 28 -26 -29
right_child=1 3 20 4 5 -7 7 -9 9 15 21 19 13 17 -16 16 -18 -19 -20 -21 24 -23 23 -25 26 -27 -28 29 -30 -31
